{"learner":{"attributes":{"best_iteration":"99","best_ntree_limit":"100","scikit_learn":"{\"use_label_encoder\": null, \"n_estimators\": 100, \"objective\": \"binary:logistic\", \"max_depth\": null, \"max_leaves\": null, \"max_bin\": null, \"grow_policy\": null, \"learning_rate\": null, \"verbosity\": null, \"booster\": null, \"tree_method\": null, \"gamma\": 0.1, \"min_child_weight\": null, \"max_delta_step\": null, \"subsample\": null, \"sampling_method\": null, \"colsample_bytree\": null, \"colsample_bylevel\": null, \"colsample_bynode\": null, \"reg_alpha\": null, \"scale_pos_weight\": null, \"base_score\": null, \"missing\": NaN, \"num_parallel_tree\": null, \"random_state\": null, \"n_jobs\": null, \"monotone_constraints\": null, \"interaction_constraints\": null, \"importance_type\": null, \"gpu_id\": null, \"validate_parameters\": null, \"predictor\": null, \"enable_categorical\": false, \"feature_types\": null, \"max_cat_to_onehot\": null, \"max_cat_threshold\": null, \"eval_metric\": null, \"early_stopping_rounds\": null, \"callbacks\": null, \"kwargs\": {\"eta\": 0.2}, \"classes_\": [0, 1], \"n_classes_\": 2, \"_estimator_type\": \"classifier\"}"},"feature_names":[],"feature_types":[],"gradient_booster":{"model":{"gbtree_model_param":{"num_parallel_tree":"1","num_trees":"100","size_leaf_vector":"0"},"tree_info":[0,0,0,0,0,0,0,0,0,0,0,0,0,0,0,0,0,0,0,0,0,0,0,0,0,0,0,0,0,0,0,0,0,0,0,0,0,0,0,0,0,0,0,0,0,0,0,0,0,0,0,0,0,0,0,0,0,0,0,0,0,0,0,0,0,0,0,0,0,0,0,0,0,0,0,0,0,0,0,0,0,0,0,0,0,0,0,0,0,0,0,0,0,0,0,0,0,0,0,0],"trees":[{"base_weights":[-8.753613E-9,-1.7162697E0,1.2793663E0,3.7824202E-1,-1.899499E0,-1.3304815E0,1.519328E0,1.6195185E0,-1.826423E0,1.3180485E0,-1.9510442E0,8.350214E-2,-1.904954E0,-6.0760033E-1,1.6430268E0,-1.0797838E0,1.7163241E0,2.9975772E-1,-1.9045209E0,1.8264278E0,-9.6803653E-1,-1.956535E0,9.3130493E-1,-1.2895994E0,1.5085988E0,-1.9382019E0,5.866113E-1,1.1407981E0,-1.5454497E0,1.7284387E0,-2.6080436E-1,-1.159891E0,2.410104E-3,-1.6388166E-1,1.8334647E0,7.8284013E-1,-5.1318896E-1,-1.9288037E0,3.1936637E-1,1.8508604E0,-1.302066E-1,-1.1754179E0,3.790966E-1,1.5205455E-1,-1.9621861E0,1.147052E0,-2.9436007E-1,5.5954266E-1,-1.5502954E0,1.8167354E0,-1.0797838E0,-1.9436052E0,2.0939338E-1,-2.9436007E-1,8.445147E-1,1.6796542E0,-1.0749471E0,7.214848E-1,-1.6695979E0,1.8475881E0,1.1137375E0,1.5771996E0,-1.5369343E0,-8.938268E-1,1.0185695E0,-3.1218222E-1,1.859064E0,-7.510157E-2,-1.9342645E0,-1.3510238E0,2.9846588E-1,-1.057392E0,1.162711E0,-1.9707469E0,-1.0256491E0,1.041115E0,-5.128426E-1,-1.7204349E0,7.398499E-1,1.8771142E0,-3.5654786E-1,2.410104E-3,-1.159891E0,7.4339665E-2,-1.9496508E0,1.7544265E0,-4.2917502E-1,-1.3962486E0,4.562004E-1,-5.357219E-1,1.2244121E0,1.5848511E-1,-1.7634046E0,1.8768407E0,3.299819E-1,-1.5198627E0,1.3158793E0,1.7097633E0,4.408521E-1,-1.7814416E0,1.2651184E0],"categories":[],"categories_nodes":[],"categories_segments":[],"categories_sizes":[],"default_left":[1,1,1,1,1,1,1,1,1,1,1,1,1,1,1,1,1,1,1,1,1,1,1,1,1,1,1,1,1,1,1,0,0,1,1,0,0,1,0,0,0,1,0,1,1,0,0,1,1,1,1,1,0,0,0,1,1,1,1,1,1,1,1,0,0,0,0,0,0,0,0,0,0,0,0,0,0,0,0,0,0,0,0,0,0,0,0,0,0,0,0,0,0,0,0,0,0,0,0,0,0],"id":0,"left_children":[1,3,5,7,9,11,13,15,17,19,21,23,25,27,29,31,33,35,37,39,41,43,45,47,49,51,53,55,57,59,61,-1,-1,63,65,-1,-1,67,-1,-1,-1,69,-1,71,73,-1,-1,75,77,79,81,83,-1,-1,-1,85,87,89,91,93,95,97,99,-1,-1,-1,-1,-1,-1,-1,-1,-1,-1,-1,-1,-1,-1,-1,-1,-1,-1,-1,-1,-1,-1,-1,-1,-1,-1,-1,-1,-1,-1,-1,-1,-1,-1,-1,-1,-1,-1],"loss_changes":[5.4937355E4,4.108006E3,8.997414E3,2.404712E3,1.6556016E3,9.863672E2,3.465045E3,1.6501611E2,5.8402344E1,2.047052E2,1.7136719E2,7.2356964E2,8.281958E1,1.2131138E3,2.0230078E3,2.242611E0,1.2304736E2,1.1826025E1,2.2763062E1,8.869049E0,1.446067E1,1.18109375E2,1.0033291E1,9.961545E1,1.641217E2,1.3973633E1,6.8106694E0,3.2883774E2,1.467909E2,8.496367E2,1.2947462E3,0E0,0E0,4.4617207E1,3.403003E1,0E0,0E0,1.6403809E0,0E0,0E0,0E0,1.2695873E1,0E0,5.520368E1,5.704297E1,0E0,0E0,2.1171928E1,7.818552E1,2.8427307E1,2.242611E0,1.1847168E1,0E0,0E0,0E0,4.1159546E1,3.4419464E1,2.6692204E1,8.11532E1,4.3495703E2,1.0603777E3,2.6643005E1,2.4504181E2,0E0,0E0,0E0,0E0,0E0,0E0,0E0,0E0,0E0,0E0,0E0,0E0,0E0,0E0,0E0,0E0,0E0,0E0,0E0,0E0,0E0,0E0,0E0,0E0,0E0,0E0,0E0,0E0,0E0,0E0,0E0,0E0,0E0,0E0,0E0,0E0,0E0,0E0],"parents":[2147483647,0,0,1,1,2,2,3,3,4,4,5,5,6,6,7,7,8,8,9,9,10,10,11,11,12,12,13,13,14,14,15,15,16,16,17,17,18,18,19,19,20,20,21,21,22,22,23,23,24,24,25,25,26,26,27,27,28,28,29,29,30,30,33,33,34,34,37,37,41,41,43,43,44,44,47,47,48,48,49,49,50,50,51,51,55,55,56,56,57,57,58,58,59,59,60,60,61,61,62,62],"right_children":[2,4,6,8,10,12,14,16,18,20,22,24,26,28,30,32,34,36,38,40,42,44,46,48,50,52,54,56,58,60,62,-1,-1,64,66,-1,-1,68,-1,-1,-1,70,-1,72,74,-1,-1,76,78,80,82,84,-1,-1,-1,86,88,90,92,94,96,98,100,-1,-1,-1,-1,-1,-1,-1,-1,-1,-1,-1,-1,-1,-1,-1,-1,-1,-1,-1,-1,-1,-1,-1,-1,-1,-1,-1,-1,-1,-1,-1,-1,-1,-1,-1,-1,-1,-1],"split_conditions":[-1.9846547E-3,-2.0915308E0,6.3589954E-1,7.202263E0,-4.9904805E-1,8.183684E-1,-1.1316179E1,-1.7812004E0,-7.892443E-1,-2.7434487E0,3.112821E0,1.6437757E0,1.8567123E0,6.956788E0,7.6499815E0,5.206807E-4,-3.6007767E0,-2.0232987E-2,-3.7902598E0,4.7222935E-2,1.08455E0,-4.2302847E0,2.488955E-1,-1.12667456E-1,3.9926124E-1,1.0649355E1,-3.0560098E0,4.6560793E0,-5.5776777E0,4.6507254E0,1.415E2,-2.3197821E-1,4.820208E-4,9.109636E-2,-7.528179E0,1.5656804E-1,-1.0263779E-1,-1.4681871E0,6.3873276E-2,3.7017208E-1,-2.604132E-2,7.517616E-1,7.581932E-2,2.9156223E-1,2.4945638E0,2.2941041E-1,-5.8872014E-2,3.8841844E0,1.754698E0,3.45E1,2.6256242E-1,-2.4341233E0,4.1878678E-2,-5.8872014E-2,1.6890295E-1,7.720412E-2,-1.2493006E1,-5.1584673E0,-6.396496E0,2.4325218E0,-3.0357394E0,2.7397454E-1,4.8977956E-2,-1.7876536E-1,2.037139E-1,-6.2436443E-2,3.718128E-1,-1.5020314E-2,-3.8685292E-1,-2.7020475E-1,5.9693176E-2,-2.114784E-1,2.325422E-1,-3.941494E-1,-2.0512982E-1,2.0822302E-1,-1.0256852E-1,-3.4408697E-1,1.4796999E-1,3.7542284E-1,-7.1309574E-2,4.820208E-4,-2.3197821E-1,1.48679335E-2,-3.8993016E-1,3.508853E-1,-8.5835E-2,-2.7924973E-1,9.124008E-2,-1.0714438E-1,2.4488242E-1,3.1697024E-2,-3.5268092E-1,3.7536815E-1,6.599638E-2,-3.0397254E-1,2.6317587E-1,3.4195265E-1,8.8170424E-2,-3.562883E-1,2.5302368E-1],"split_indices":[711,802,437,627,454,420,558,663,764,23,801,160,526,765,22,59,629,455,644,19,733,525,40,527,162,422,92,561,567,351,850,0,0,573,782,0,0,712,0,0,0,250,0,181,457,0,0,631,594,834,111,456,0,0,0,458,558,628,713,420,354,800,720,0,0,0,0,0,0,0,0,0,0,0,0,0,0,0,0,0,0,0,0,0,0,0,0,0,0,0,0,0,0,0,0,0,0,0,0,0,0],"split_type":[0,0,0,0,0,0,0,0,0,0,0,0,0,0,0,0,0,0,0,0,0,0,0,0,0,0,0,0,0,0,0,0,0,0,0,0,0,0,0,0,0,0,0,0,0,0,0,0,0,0,0,0,0,0,0,0,0,0,0,0,0,0,0,0,0,0,0,0,0,0,0,0,0,0,0,0,0,0,0,0,0,0,0,0,0,0,0,0,0,0,0,0,0,0,0,0,0,0,0,0,0],"sum_hessian":[2.5E4,1.0675458E4,1.4324541E4,8.5791406E2,9.817544E3,1.2023389E3,1.3122203E4,5.5057947E2,3.0733463E2,1.5092319E2,9.666621E3,3.4982928E2,8.525096E2,7.190713E2,1.2403131E4,1.5546385E1,5.350331E2,9.883304E0,2.9745132E2,1.25111565E2,2.5811625E1,9.651447E3,1.5173894E1,1.7864906E2,1.711802E2,8.4347504E2,9.034549E0,2.5029378E2,4.6877753E2,1.1871461E4,5.3167065E2,1.3806434E1,1.7399515E0,3.1144657E1,5.038884E2,6.4316955E0,3.4516084E0,2.9555106E2,1.9002736E0,1.24102486E2,1.009077E0,2.3472826E1,2.3387983E0,2.5104342E1,9.626343E3,1.3448091E1,1.7258042E0,2.0657804E1,1.5799127E2,1.5563382E2,1.5546385E1,8.423056E2,1.1693991E0,1.7258042E0,7.3087444E0,2.0327739E2,4.7016388E1,2.184135E1,4.469362E2,9.927189E3,1.9442716E3,2.1690465E2,3.14766E2,2.076624E1,1.0378417E1,4.6210074E0,4.992674E2,1.3014268E0,2.942496E2,2.1718727E1,1.7540987E0,1.1217728E1,1.3886615E1,9.528203E3,9.8139824E1,1.4457167E1,6.200637E0,1.4938109E2,8.610171E0,1.5275276E2,2.881056E0,1.7399515E0,1.3806434E1,2.178476E0,8.4012714E2,1.9793965E2,5.3377347E0,3.9589764E1,7.4266253E0,6.054462E0,1.5786888E1,2.1478264E1,4.2545792E2,9.737134E3,1.9005554E2,1.3394789E2,1.8103237E3,1.8972557E2,2.7179085E1,2.928539E2,2.1912086E1],"tree_param":{"num_deleted":"0","num_feature":"893","num_nodes":"101","size_leaf_vector":"0"}},{"base_weights":[-2.9962737E-4,-1.2160479E0,1.2493191E0,-1.5140359E0,2.6495394E-1,1.4029989E0,-5.2797712E-2,1.158081E0,-1.571805E0,9.630141E-1,-1.4235567E0,1.4740855E0,-1.1537591E0,-1.33191E0,8.459627E-1,1.6074077E0,-9.65904E-1,-1.6209217E0,-1.5692939E-1,-1.3704721E0,1.2147769E0,-1.6392083E0,7.3531115E-1,1.5027573E0,-4.331596E-1,-1.6327224E0,1.0488374E0,-1.5608895E0,1.1997634E0,1.2640622E0,-1.1105769E0,1.6395044E0,-2.4963658E-1,4.4971064E-1,-1.1701192E0,-4.939194E-1,-1.6377257E0,1.336497E0,-1.4475504E0,3.9606646E-1,-1.5305324E0,1.3740929E0,-5.817399E-1,3.844005E-1,-1.6557453E0,1.3988067E0,-6.682391E-1,1.5678675E0,8.771876E-1,-1.5292729E0,1.4824035E0,1.3146368E0,-5.796799E-1,-1.6099305E0,4.7861364E-1,-2.4774957E-1,1.3489901E0,-4.8909643E-1,1.4647325E0,1.3571237E-1,-1.4217486E0,5.8773648E-2,-1.2410907E0,1.2924138E0,-1.4140438E0,7.3230094E-1,-1.6447173E0,-1.777921E-1,1.572358E0,-1.5725341E0,6.665633E-1,8.0011725E-1,-3.8446876E-1,2.2159392E-1,-1.5652122E0,-2.5204816E-1,1.5333061E0,7.967626E-1,-1.3137296E0,2.5980747E-1,-1.666424E0,1.4544628E0,-8.108469E-2,-9.547418E-1,3.9529553E-1,-9.728391E-1,1.5727594E0,1.3102988E0,7.2743826E-2,-1.5570922E0,2.890916E-2,1.5679369E0,-1.7604089E-1,-1.3869606E-1,1.3722498E0,4.5148876E-1,-1.6311547E0,7.252791E-1,-3.0072996E-1,7.505618E-1,-1.183906E0,1.5223299E0,-9.5560944E-1,-8.7563956E-1,8.5556555E-1,3.0104843E-1,-1.4831333E0],"categories":[],"categories_nodes":[],"categories_segments":[],"categories_sizes":[],"default_left":[1,1,1,1,1,1,1,1,1,1,1,1,1,1,1,1,1,1,1,1,1,1,1,1,1,0,1,1,1,1,1,0,0,0,1,1,1,1,1,1,1,1,1,0,1,1,1,1,1,1,1,1,0,1,1,0,0,1,1,1,1,0,0,0,0,0,0,0,0,0,0,0,0,0,0,0,0,0,0,0,0,0,0,0,0,0,0,0,0,0,0,0,0,0,0,0,0,0,0,0,0,0,0,0,0,0,0],"id":1,"left_children":[1,3,5,7,9,11,13,15,17,19,21,23,25,27,29,31,33,35,37,39,41,43,45,47,49,-1,51,53,55,57,59,-1,-1,-1,61,63,65,67,69,71,73,75,77,-1,79,81,83,85,87,89,91,93,-1,95,97,-1,-1,99,101,103,105,-1,-1,-1,-1,-1,-1,-1,-1,-1,-1,-1,-1,-1,-1,-1,-1,-1,-1,-1,-1,-1,-1,-1,-1,-1,-1,-1,-1,-1,-1,-1,-1,-1,-1,-1,-1,-1,-1,-1,-1,-1,-1,-1,-1,-1,-1],"loss_changes":[3.67343E4,5.4128125E3,2.386789E3,1.5934258E3,2.4434802E3,1.9554512E3,1.4693899E3,2.2711066E2,6.9189844E2,8.769828E2,2.9464722E2,5.742031E2,3.274116E2,3.244077E2,6.284179E2,1.5223694E1,1.8259056E1,1.747832E2,6.868773E2,4.7714844E1,3.8783545E2,2.4936157E1,6.711267E1,4.0291602E2,3.6179788E2,0E0,3.2996086E1,5.6506348E1,1.4010956E1,2.2651196E2,5.5276382E1,0E0,0E0,0E0,4.398304E0,2.74987E2,1.6963281E2,6.1995026E1,6.0838684E1,9.441367E0,1.1800842E1,3.2024292E2,1.2663826E2,0E0,1.5628174E1,4.9147644E0,1.1902982E1,1.3029883E2,3.4295056E2,5.116623E0,1.1819153E1,6.3792877E0,0E0,2.8310791E1,5.8653855E0,0E0,0E0,7.049921E1,9.288733E1,3.4146275E1,1.6197968E1,0E0,0E0,0E0,0E0,0E0,0E0,0E0,0E0,0E0,0E0,0E0,0E0,0E0,0E0,0E0,0E0,0E0,0E0,0E0,0E0,0E0,0E0,0E0,0E0,0E0,0E0,0E0,0E0,0E0,0E0,0E0,0E0,0E0,0E0,0E0,0E0,0E0,0E0,0E0,0E0,0E0,0E0,0E0,0E0,0E0,0E0],"parents":[2147483647,0,0,1,1,2,2,3,3,4,4,5,5,6,6,7,7,8,8,9,9,10,10,11,11,12,12,13,13,14,14,15,15,16,16,17,17,18,18,19,19,20,20,21,21,22,22,23,23,24,24,26,26,27,27,28,28,29,29,30,30,34,34,35,35,36,36,37,37,38,38,39,39,40,40,41,41,42,42,44,44,45,45,46,46,47,47,48,48,49,49,50,50,51,51,53,53,54,54,57,57,58,58,59,59,60,60],"right_children":[2,4,6,8,10,12,14,16,18,20,22,24,26,28,30,32,34,36,38,40,42,44,46,48,50,-1,52,54,56,58,60,-1,-1,-1,62,64,66,68,70,72,74,76,78,-1,80,82,84,86,88,90,92,94,-1,96,98,-1,-1,100,102,104,106,-1,-1,-1,-1,-1,-1,-1,-1,-1,-1,-1,-1,-1,-1,-1,-1,-1,-1,-1,-1,-1,-1,-1,-1,-1,-1,-1,-1,-1,-1,-1,-1,-1,-1,-1,-1,-1,-1,-1,-1,-1,-1,-1,-1,-1,-1],"split_conditions":[9.170428E-1,6.6706866E-2,2.915E2,-4.823597E-1,1.2881482E0,1.1507948E1,-2.077382E-1,-2.6773572E0,2.3988433E0,-1.2851706E1,1.9508476E0,5.1466618E0,-1.0674832E0,2.605433E0,-1.5510525E0,5.5207646E-1,1.855E2,-2.160306E0,8.587771E-1,-2.0086877E0,2.05E1,-1.6260228E0,3.867048E-1,3.355866E0,5.950733E0,-3.265445E-1,1.1746477E0,1.6775867E-1,-8.040662E-1,-1.1356925E0,-6.303414E-1,3.279009E-1,-4.9927317E-2,8.994213E-2,-2.2131507E0,1.2111125E0,-4.2302847E0,-7.077817E-2,-2.5596387E0,4.3502045E-1,-1.9740531E0,-3.735907E0,-6.846484E-2,7.68801E-2,-2.459526E0,2.466886E0,7.441184E-2,-3.2385216E0,6.059389E0,3.2386248E0,2.4550381E-1,-3.2819378E0,-1.1593598E-1,-1.7571237E0,9.2014685E-2,-4.9549915E-2,2.69798E-1,3.704597E0,2.0248523E0,5.5045478E-2,6.7663364E0,1.175473E-2,-2.4821813E-1,2.5848278E-1,-2.8280875E-1,1.4646019E-1,-3.2894346E-1,-3.555842E-2,3.144716E-1,-3.1450683E-1,1.3331266E-1,1.6002345E-1,-7.6893754E-2,4.4318784E-2,-3.1304246E-1,-5.0409634E-2,3.0666122E-1,1.5935253E-1,-2.6274595E-1,5.1961493E-2,-3.3328483E-1,2.9089257E-1,-1.621694E-2,-1.9094835E-1,7.905911E-2,-1.9456783E-1,3.145519E-1,2.6205978E-1,1.45487655E-2,-3.1141844E-1,5.781832E-3,3.135874E-1,-3.5208177E-2,-2.7739212E-2,2.7444997E-1,9.029775E-2,-3.2623094E-1,1.4505582E-1,-6.0145993E-2,1.5011236E-1,-2.367812E-1,3.0446598E-1,-1.9112189E-1,-1.7512791E-1,1.7111312E-1,6.0209688E-2,-2.9662666E-1],"split_indices":[801,711,831,454,420,144,510,23,250,489,423,420,147,505,456,510,831,802,764,23,834,524,299,595,414,0,576,787,354,228,554,0,0,0,621,645,525,642,92,735,802,282,596,0,456,181,229,162,765,423,458,594,0,435,737,0,0,882,593,506,859,0,0,0,0,0,0,0,0,0,0,0,0,0,0,0,0,0,0,0,0,0,0,0,0,0,0,0,0,0,0,0,0,0,0,0,0,0,0,0,0,0,0,0,0,0,0],"split_type":[0,0,0,0,0,0,0,0,0,0,0,0,0,0,0,0,0,0,0,0,0,0,0,0,0,0,0,0,0,0,0,0,0,0,0,0,0,0,0,0,0,0,0,0,0,0,0,0,0,0,0,0,0,0,0,0,0,0,0,0,0,0,0,0,0,0,0,0,0,0,0,0,0,0,0,0,0,0,0,0,0,0,0,0,0,0,0,0,0,0,0,0,0,0,0,0,0,0,0,0,0,0,0,0,0,0,0],"sum_hessian":[2.4159682E4,1.2245937E4,1.1913745E4,1.0194506E4,2.0514304E3,1.0655389E4,1.2583566E3,2.1170245E2,9.982804E3,1.4544371E3,5.969934E2,1.0371268E4,2.841213E2,5.173074E2,7.4104926E2,1.7674448E2,3.4957985E1,9.646475E3,3.3632898E2,1.3731212E2,1.317125E3,5.449635E2,5.2029892E1,1.0219753E4,1.5151451E2,2.3549852E2,4.8622795E1,4.7791635E2,3.939102E1,6.134898E2,1.27559395E2,1.748931E2,1.851377E0,2.8916588E0,3.2066326E1,1.4618404E2,9.500291E3,1.5574968E2,1.805793E2,1.0182794E1,1.27129326E2,1.2119958E3,1.0512907E2,2.6142287E0,5.4234924E2,3.5351902E1,1.6677988E1,9.242696E3,9.7705615E2,9.765276E1,5.3861755E1,4.3457287E1,5.165507E0,4.6875122E2,9.165152E0,3.0643458E0,3.6326675E1,6.1532997E1,5.5195685E2,2.6612211E1,1.0094718E2,1.8446342E0,3.0221691E1,4.832317E1,9.786087E1,2.4892258E1,9.475398E3,2.132159E1,1.3442809E2,1.7291832E2,7.6609755E0,6.5442348E0,3.638559E0,1.4213561E0,1.2570797E2,1.0756259E2,1.1044333E3,3.615539E1,6.897368E1,1.7133694E0,5.406359E2,3.4236168E1,1.1157328E0,1.3944464E1,2.7335246E0,1.3959092E1,9.228737E3,6.310251E2,3.4603113E2,9.5946754E1,1.7060082E0,5.173908E1,2.122677E0,1.1204102E0,4.2336876E1,2.7110646E0,4.6604016E2,7.488674E0,1.6764781E0,2.1812817E1,3.972018E1,5.4275116E2,9.205698E0,1.0165763E1,1.6446447E1,2.1298075E0,9.8817375E1],"tree_param":{"num_deleted":"0","num_feature":"893","num_nodes":"107","size_leaf_vector":"0"}},{"base_weights":[-9.3409617E-4,-1.2764592E0,9.1386926E-1,2.1093933E-1,-1.4052712E0,-1.0028794E0,1.0926143E0,1.141425E0,-1.3783828E0,8.651062E-1,-1.4433742E0,4.571956E-2,-1.3889278E0,1.2215724E0,-8.150169E-2,-1.1113576E0,1.2388612E0,3.1339824E-1,-1.4283631E0,1.3627323E0,-8.3472127E-1,-1.4475739E0,6.798918E-1,-9.7456807E-1,1.143488E0,7.356299E-1,-1.4261581E0,1.2620927E0,-9.304125E-1,9.9908936E-1,-9.968758E-1,-2.1310272E-2,-1.1655434E0,-5.720807E-1,1.3253614E0,-2.4563454E-1,5.452326E-1,-1.4540108E0,3.1085965E-1,-1.2852864E-1,1.3864336E0,-9.913832E-1,3.3535427E-1,7.5829975E-2,-1.4519329E0,8.5961986E-1,-2.3960425E-1,4.4514257E-1,-1.1884887E0,-8.661928E-1,1.3648574E0,8.1149745E-1,-6.69809E-2,-1.2524E-1,-1.4478022E0,2.9852438E-1,1.320077E0,-1.4322947E0,8.9575166E-1,1.2080889E0,-2.0378381E-1,-1.2798276E0,1.1457927E0,-9.5037216E-1,4.577574E-1,-9.6051954E-2,1.396327E0,3.1201832E-4,-1.4618174E0,-1.0713645E0,1.7438091E-1,-9.1052866E-1,9.421804E-1,-1.4553492E0,-9.4422154E-2,8.6352986E-1,-5.974224E-1,-1.3076848E0,6.0947543E-1,-3.1271044E-2,-9.066772E-1,-2.5138128E-1,1.4020588E0,6.376259E-1,-7.005269E-1,1.0142687E-1,-1.4567219E0,1.3047997E0,-8.261676E-1,1.334198E0,-8.567782E-1,-1.4482851E0,2.352488E-2,1.1726544E0,-2.2828722E-1,1.3123399E0,-9.8378E-1,-9.879544E-1,4.8093206E-1,-1.4150976E0,1.3680533E-1,-4.2358866E-1,1.3250945E0],"categories":[],"categories_nodes":[],"categories_segments":[],"categories_sizes":[],"default_left":[1,1,1,1,1,1,1,1,1,1,1,1,1,1,1,1,1,1,1,1,1,1,1,1,1,1,1,1,1,1,1,0,0,1,1,0,0,1,0,0,0,1,0,1,1,0,0,1,1,1,1,0,0,1,1,1,1,1,1,1,1,1,1,0,0,0,0,0,0,0,0,0,0,0,0,0,0,0,0,0,0,0,0,0,0,0,0,0,0,0,0,0,0,0,0,0,0,0,0,0,0,0,0],"id":2,"left_children":[1,3,5,7,9,11,13,15,17,19,21,23,25,27,29,31,33,35,37,39,41,43,45,47,49,51,53,55,57,59,61,-1,-1,63,65,-1,-1,67,-1,-1,-1,69,-1,71,73,-1,-1,75,77,79,81,-1,-1,83,85,87,89,91,93,95,97,99,101,-1,-1,-1,-1,-1,-1,-1,-1,-1,-1,-1,-1,-1,-1,-1,-1,-1,-1,-1,-1,-1,-1,-1,-1,-1,-1,-1,-1,-1,-1,-1,-1,-1,-1,-1,-1,-1,-1,-1,-1],"loss_changes":[2.6097441E4,1.7926787E3,4.4732705E3,1.1295712E3,7.5627734E2,4.52484E2,1.8055664E3,1.19244934E2,2.8376648E1,1.3670663E2,8.52793E1,3.5839996E2,7.504797E1,9.482119E2,1.1859186E3,1.2396545E0,8.04751E1,3.4533076E0,1.6846924E1,5.9672546E0,1.0611954E1,5.7191406E1,5.9439545E0,5.5732605E1,8.03118E1,1.801156E0,2.0867554E1,5.8524023E2,2.0001538E2,1.407876E2,4.079176E2,0E0,0E0,1.5335947E1,4.6444336E1,0E0,0E0,3.116394E0,0E0,0E0,0E0,5.3729515E0,0E0,3.729368E1,3.7685547E1,0E0,0E0,1.7819136E1,3.948755E1,4.395752E-1,1.2095978E1,0E0,0E0,1.5056285E1,1.241333E1,7.0281934E2,3.1709375E2,4.159729E0,1.8296005E1,1.20357056E2,5.3078686E1,1.1263934E2,2.8389221E1,0E0,0E0,0E0,0E0,0E0,0E0,0E0,0E0,0E0,0E0,0E0,0E0,0E0,0E0,0E0,0E0,0E0,0E0,0E0,0E0,0E0,0E0,0E0,0E0,0E0,0E0,0E0,0E0,0E0,0E0,0E0,0E0,0E0,0E0,0E0,0E0,0E0,0E0,0E0,0E0],"parents":[2147483647,0,0,1,1,2,2,3,3,4,4,5,5,6,6,7,7,8,8,9,9,10,10,11,11,12,12,13,13,14,14,15,15,16,16,17,17,18,18,19,19,20,20,21,21,22,22,23,23,24,24,25,25,26,26,27,27,28,28,29,29,30,30,33,33,34,34,37,37,41,41,43,43,44,44,47,47,48,48,49,49,50,50,53,53,54,54,55,55,56,56,57,57,58,58,59,59,60,60,61,61,62,62],"right_children":[2,4,6,8,10,12,14,16,18,20,22,24,26,28,30,32,34,36,38,40,42,44,46,48,50,52,54,56,58,60,62,-1,-1,64,66,-1,-1,68,-1,-1,-1,70,-1,72,74,-1,-1,76,78,80,82,-1,-1,84,86,88,90,92,94,96,98,100,102,-1,-1,-1,-1,-1,-1,-1,-1,-1,-1,-1,-1,-1,-1,-1,-1,-1,-1,-1,-1,-1,-1,-1,-1,-1,-1,-1,-1,-1,-1,-1,-1,-1,-1,-1,-1,-1,-1,-1,-1],"split_conditions":[-9.037104E-3,-2.0909915E0,6.30615E-1,7.202263E0,-4.823597E-1,2.8810272E-1,1.465E2,-1.7812004E0,-1.4125228E0,-2.7434487E0,3.112821E0,1.6437757E0,-1.5271966E0,1.3608549E1,3.2907944E0,5.0490797E-2,-1.2932676E-1,-3.1446583E0,-4.6695323E0,-2.726604E0,6.319686E-2,-4.2302847E0,2.488955E-1,-1.12667456E-1,-1.05035506E-1,1.545597E0,-5.637453E0,5.6396276E-1,1.4096701E0,8.002337E0,6.531825E0,-4.2620543E-3,-2.3310868E-1,2.828124E0,-3.336069E0,-4.912691E-2,1.0904652E-1,-7.060128E-1,6.2171932E-2,-2.5705729E-2,2.7728674E-1,1.5695004E-1,6.707086E-2,2.9156223E-1,8.83024E-1,1.7192398E-1,-4.792085E-2,4.8899617E0,2.3551369E0,-2.6943274E-2,-2.7945898E0,1.622995E-1,-1.339618E-2,-1.3466575E0,-1.9080045E0,-9.2375743E-1,7.3638506E0,3.801591E0,2.301283E-2,5.0085764E0,1.2221129E0,-4.6196833E0,-1.54563E0,-1.9007443E-1,9.155148E-2,-1.921039E-2,2.792654E-1,6.240367E-5,-2.923635E-1,-2.142729E-1,3.4876183E-2,-1.8210573E-1,1.8843608E-1,-2.9106984E-1,-1.8884432E-2,1.7270598E-1,-1.19484484E-1,-2.6153696E-1,1.2189509E-1,-6.2542087E-3,-1.8133543E-1,-5.0276257E-2,2.8041178E-1,1.2752518E-1,-1.4010538E-1,2.0285374E-2,-2.9134437E-1,2.6095995E-1,-1.6523352E-1,2.668396E-1,-1.7135565E-1,-2.8965703E-1,4.704976E-3,2.3453088E-1,-4.5657445E-2,2.6246798E-1,-1.96756E-1,-1.9759087E-1,9.6186414E-2,-2.830195E-1,2.7361065E-2,-8.4717736E-2,2.650189E-1],"split_indices":[711,802,437,627,454,420,850,663,781,23,801,160,524,144,492,166,436,75,644,44,379,525,40,527,300,22,782,457,148,765,801,0,0,111,595,0,0,593,0,0,0,658,0,181,453,0,0,631,594,546,74,0,0,22,456,525,575,836,435,161,632,558,300,0,0,0,0,0,0,0,0,0,0,0,0,0,0,0,0,0,0,0,0,0,0,0,0,0,0,0,0,0,0,0,0,0,0,0,0,0,0,0,0],"split_type":[0,0,0,0,0,0,0,0,0,0,0,0,0,0,0,0,0,0,0,0,0,0,0,0,0,0,0,0,0,0,0,0,0,0,0,0,0,0,0,0,0,0,0,0,0,0,0,0,0,0,0,0,0,0,0,0,0,0,0,0,0,0,0,0,0,0,0,0,0,0,0,0,0,0,0,0,0,0,0,0,0,0,0,0,0,0,0,0,0,0,0,0,0,0,0,0,0,0,0,0,0,0,0],"sum_hessian":[2.2345635E4,9.331133E3,1.3014502E4,7.4318274E2,8.587949E3,1.1062002E3,1.1908302E4,4.7052628E2,2.726565E2,1.381674E2,8.449782E3,3.0003897E2,8.061612E2,1.0729438E4,1.1788639E3,1.5193082E1,4.553332E2,6.3115673E0,2.663449E2,1.0841262E2,2.9754786E1,8.436278E3,1.3504105E1,1.5608902E2,1.4394994E2,1.0653063E1,7.955081E2,1.0535203E4,1.9423524E2,5.40222E2,6.3864185E2,1.3792751E0,1.3813807E1,1.819851E1,4.371347E2,1.6756754E0,4.635892E0,2.6409033E2,2.2545838E0,1.0041485E0,1.0740847E2,2.7588179E1,2.166608E0,2.360301E1,8.412675E3,1.1840837E1,1.663268E0,1.9024149E1,1.3706488E2,1.1392788E1,1.3255714E2,9.631881E0,1.0211825E0,1.41292925E1,7.8137885E2,6.014775E2,9.933726E3,1.5405368E2,4.018156E1,4.60216E2,8.000601E1,5.677006E2,7.094122E1,1.387385E1,4.3246603E0,2.0618547E1,4.1651614E2,1.4612812E0,2.6262906E2,2.6574694E1,1.0134836E0,1.0798616E1,1.2804394E1,8.390838E3,2.183674E1,1.4801484E1,4.222664E0,1.3110042E2,5.964452E0,1.3465562E0,1.0046231E1,1.6870995E0,1.3087004E2,5.6084833E0,8.520809E0,3.8793604E0,7.7749945E2,3.1660544E2,2.8487207E2,9.873548E3,6.017771E1,1.5243117E2,1.6225162E0,3.1892464E1,8.289097E0,4.4315125E2,1.706474E1,3.523009E1,4.4775925E1,5.1822754E2,4.9473114E1,5.8770027E0,6.5064224E1],"tree_param":{"num_deleted":"0","num_feature":"893","num_nodes":"103","size_leaf_vector":"0"}},{"base_weights":[-2.098363E-3,-1.1742563E0,8.034236E-1,1.22205496E-1,-1.2888024E0,-9.1514647E-1,9.6693176E-1,1.0194035E0,-1.2608825E0,7.2279143E-1,-1.322684E0,-5.0037906E-2,-1.2859514E0,-3.2204208E-1,1.0679836E0,-9.886141E-1,1.1195564E0,3.3842078E-1,-1.3005177E0,1.2336287E0,-7.376213E-1,-1.3310666E0,-4.0547934E-1,-8.527615E-1,1.154061E0,-1.3132288E0,4.8106247E-1,7.940595E-1,-1.0042167E0,1.2154777E0,5.334522E-1,-1.0404854E0,-6.740537E-3,1.2358177E0,-3.8526684E-1,4.183354E-1,-6.566999E-2,1.4755602E-1,-1.3190081E0,1.2599394E0,-1.2740314E-1,3.486514E-1,-8.8878053E-1,2.7348858E-1,-1.3340441E0,-9.361669E-1,5.7285565E-1,-1.0707816E0,7.409704E-1,1.2749746E0,-4.2918321E-1,-1.3196174E0,1.7749234E-1,-2.1038508E-1,6.7048967E-1,1.0933197E0,-1.0687566E0,-1.2025837E0,2.2099255E-2,1.2427807E0,-7.4835983E-3,1.050564E0,1.6075285E-2,1.2613627E0,-4.8241302E-1,-1.0575417E0,6.977633E-1,-2.8424254E-2,1.8983234E-1,7.872977E-2,-1.3338442E0,-9.7672415E-1,2.0032087E-1,-4.5971942E-1,6.923608E-1,-1.3361801E0,2.548041E-1,-1.0437822E0,3.3468145E-1,1.0634909E0,-3.264866E-1,-1.2105391E0,6.163082E-1,9.381822E-1,-3.115573E-1,1.2902321E0,-4.9657214E-2,-5.482629E-1,9.9020116E-2,-1.3240281E0,1.6789392E-1,1.3235317E0,1.6848238E-1,3.5176423E-1,-1.251208E0,4.756877E-1,-1.2671114E0,6.659474E-1,-6.9775474E-1,1.2602383E0,-1.4133586E-1,-1.285442E0,9.700574E-1,-5.194524E-1,1.1905794E0,-1.4443386E0,1.828321E-1],"categories":[],"categories_nodes":[],"categories_segments":[],"categories_sizes":[],"default_left":[1,1,1,1,1,1,1,1,1,1,1,1,1,1,1,1,1,1,1,1,1,1,1,1,1,1,1,1,1,1,1,0,0,1,1,0,0,1,1,0,0,0,1,1,1,1,1,1,1,1,1,1,0,0,0,1,1,1,1,1,1,1,1,0,0,0,0,0,0,0,0,0,0,0,0,0,0,0,0,0,0,0,0,0,0,0,0,0,0,0,0,0,0,0,0,0,0,0,0,0,0,0,0,0,0,0,0],"id":3,"left_children":[1,3,5,7,9,11,13,15,17,19,21,23,25,27,29,31,33,35,37,39,41,43,45,47,49,51,53,55,57,59,61,-1,-1,63,65,-1,-1,67,69,-1,-1,-1,71,73,75,77,79,81,83,85,87,89,-1,-1,-1,91,93,95,97,99,101,103,105,-1,-1,-1,-1,-1,-1,-1,-1,-1,-1,-1,-1,-1,-1,-1,-1,-1,-1,-1,-1,-1,-1,-1,-1,-1,-1,-1,-1,-1,-1,-1,-1,-1,-1,-1,-1,-1,-1,-1,-1,-1,-1,-1,-1],"loss_changes":[1.905615E4,1.2223398E3,3.3701636E3,8.5228485E2,5.244072E2,3.343697E2,1.4267949E3,9.469623E1,2.1556274E1,1.07270935E2,5.174707E1,3.2275107E2,4.1532715E1,6.186713E2,7.9260156E2,1.2064819E0,7.487689E1,7.4231875E-1,9.072632E0,5.230301E0,9.725723E0,3.8814453E1,4.7776535E1,7.74249E1,3.1075104E1,9.219971E0,3.8240252E0,1.8442097E2,1.0251486E2,2.650752E2,5.910222E2,0E0,0E0,2.2518372E1,3.3856903E1,0E0,0E0,1.4583626E-1,6.52063E0,0E0,0E0,0E0,5.6198273E0,9.918759E0,2.8344727E1,1.1255859E1,1.8886269E1,4.9905518E1,9.145264E0,3.2028198E0,1.6103299E0,6.9488525E0,0E0,0E0,0E0,5.5662872E1,1.6827599E1,5.1627197E1,4.69014E1,1.8934961E2,2.4138432E2,2.4908984E2,2.7411536E2,0E0,0E0,0E0,0E0,0E0,0E0,0E0,0E0,0E0,0E0,0E0,0E0,0E0,0E0,0E0,0E0,0E0,0E0,0E0,0E0,0E0,0E0,0E0,0E0,0E0,0E0,0E0,0E0,0E0,0E0,0E0,0E0,0E0,0E0,0E0,0E0,0E0,0E0,0E0,0E0,0E0,0E0,0E0,0E0],"parents":[2147483647,0,0,1,1,2,2,3,3,4,4,5,5,6,6,7,7,8,8,9,9,10,10,11,11,12,12,13,13,14,14,15,15,16,16,17,17,18,18,19,19,20,20,21,21,22,22,23,23,24,24,25,25,26,26,27,27,28,28,29,29,30,30,33,33,34,34,37,37,38,38,42,42,43,43,44,44,45,45,46,46,47,47,48,48,49,49,50,50,51,51,55,55,56,56,57,57,58,58,59,59,60,60,61,61,62,62],"right_children":[2,4,6,8,10,12,14,16,18,20,22,24,26,28,30,32,34,36,38,40,42,44,46,48,50,52,54,56,58,60,62,-1,-1,64,66,-1,-1,68,70,-1,-1,-1,72,74,76,78,80,82,84,86,88,90,-1,-1,-1,92,94,96,98,100,102,104,106,-1,-1,-1,-1,-1,-1,-1,-1,-1,-1,-1,-1,-1,-1,-1,-1,-1,-1,-1,-1,-1,-1,-1,-1,-1,-1,-1,-1,-1,-1,-1,-1,-1,-1,-1,-1,-1,-1,-1,-1,-1,-1,-1,-1],"split_conditions":[-1.6929626E-2,-1.9866015E0,6.30615E-1,7.202263E0,-4.7795844E-1,8.183684E-1,-1.0703676E1,-1.7783272E0,-6.757891E-1,-2.7434487E0,1.6710055E0,5.134472E-1,1.8999708E0,6.619707E0,3.8680344E0,-1.482461E-1,1.8930414E0,3.62791E-1,1.7589129E0,5.2733237E-1,-1.6660208E-1,-4.620413E0,-1.5526077E-1,1.3347979E0,-1.2516212E-1,9.536576E-1,-3.0560098E0,7.601368E-1,7.170569E-1,5.0922184E0,1.2970816E0,-2.0809709E-1,-1.3481075E-3,2.5827296E0,4.2450666E0,8.3667085E-2,-1.3133998E-2,-2.1429515E0,-1.9243801E0,2.519879E-1,-2.5480628E-2,6.973028E-2,1.3637829E-1,-6.1248124E-1,1.1152673E0,2.1050286E-1,5.520705E-1,1.6877584E0,-8.8112646E-1,1.2346883E0,2.235382E-2,1.0980368E1,3.5498466E-2,-4.2077016E-2,1.3409793E-1,4.3063197E0,-2.1457205E0,-2.5163212E0,2.4863718E-1,8.537285E0,-2.1746235E0,1.1764202E0,-2.8533869E0,2.5227255E-1,-9.6482605E-2,-2.1150835E-1,1.3955267E-1,-5.6848507E-3,3.796647E-2,1.5745955E-2,-2.6676884E-1,-1.9534484E-1,4.0064175E-2,-9.194388E-2,1.3847217E-1,-2.6723602E-1,5.096082E-2,-2.0875645E-1,6.693629E-2,2.1269818E-1,-6.529732E-2,-2.4210782E-1,1.23261645E-1,1.8763644E-1,-6.231146E-2,2.5804642E-1,-9.931443E-3,-1.0965258E-1,1.9804023E-2,-2.6480564E-1,3.3578783E-2,2.6470634E-1,3.3696476E-2,7.0352845E-2,-2.502416E-1,9.5137544E-2,-2.534223E-1,1.3318948E-1,-1.3955095E-1,2.5204766E-1,-2.8267173E-2,-2.570884E-1,1.940115E-1,-1.0389048E-1,2.3811589E-1,-2.888677E-1,3.656642E-2],"split_indices":[711,802,437,627,454,420,558,663,593,23,42,456,526,765,144,648,162,96,645,508,653,525,711,42,298,655,92,229,770,355,626,0,0,181,457,0,0,181,712,0,0,0,439,21,453,780,297,526,23,387,310,422,0,0,0,765,802,664,644,22,75,506,575,0,0,0,0,0,0,0,0,0,0,0,0,0,0,0,0,0,0,0,0,0,0,0,0,0,0,0,0,0,0,0,0,0,0,0,0,0,0,0,0,0,0,0,0],"split_type":[0,0,0,0,0,0,0,0,0,0,0,0,0,0,0,0,0,0,0,0,0,0,0,0,0,0,0,0,0,0,0,0,0,0,0,0,0,0,0,0,0,0,0,0,0,0,0,0,0,0,0,0,0,0,0,0,0,0,0,0,0,0,0,0,0,0,0,0,0,0,0,0,0,0,0,0,0,0,0,0,0,0,0,0,0,0,0,0,0,0,0,0,0,0,0,0,0,0,0,0,0,0,0,0,0,0,0],"sum_hessian":[2.0162352E4,8.210393E3,1.1951959E4,6.664677E2,7.5439253E3,1.0343496E3,1.0917609E4,4.058352E2,2.606325E2,1.21591225E2,7.422334E3,3.1373584E2,7.2061383E2,7.920966E2,1.0125513E4,1.5065665E1,3.9076953E2,4.4799595E0,2.5615256E2,9.123206E1,3.035916E1,7.350642E3,7.169192E1,1.8999306E2,1.23742775E2,7.1218787E2,8.4259815E0,2.9985904E2,4.9223758E2,7.925797E3,2.1997158E3,1.3742715E1,1.3229501E0,3.644037E2,2.636586E1,3.4459615E0,1.033998E0,2.3495076E0,2.5380304E2,9.0230545E1,1.0015192E0,2.1125567E0,2.8246603E1,1.1932251E1,7.33871E3,4.6759003E1,2.4932915E1,1.7001637E2,1.9976685E1,1.167719E2,6.9708786E0,7.102917E2,1.8961879E0,1.5740387E0,6.851943E0,2.619136E2,3.794542E1,4.1106854E2,8.1169044E1,7.7525557E3,1.7324081E2,1.0949857E3,1.1047301E3,3.6168542E2,2.71824E0,1.6413048E1,9.952811E0,1.0897686E0,1.2597389E0,2.2133498E0,2.5158969E2,2.7090881E1,1.1557219E0,3.9837642E0,7.9484863E0,7.3304453E3,8.264371E0,4.4755817E1,2.0031881E0,1.4951132E1,9.981783E0,1.5961838E2,1.0397998E1,1.7739271E1,2.2374127E0,1.1569894E2,1.0729632E0,5.3785524E0,1.5923262E0,7.0928754E2,1.0041475E0,2.0626004E2,5.565358E1,3.262729E0,3.468269E1,1.28607645E1,3.9820776E2,4.32418E1,3.792725E1,7.6568765E3,9.5679474E1,7.371803E1,9.952277E1,8.743727E1,1.0075484E3,1.0536415E2,9.993659E2],"tree_param":{"num_deleted":"0","num_feature":"893","num_nodes":"107","size_leaf_vector":"0"}},{"base_weights":[-2.9970552E-3,-1.1168286E0,7.065323E-1,2.5169778E-1,-1.1951319E0,-7.780758E-1,8.6826324E-1,-1.0535597E0,9.60153E-1,4.313287E-1,-1.2255996E0,-4.8612382E-2,-1.1782641E0,9.891563E-1,-1.7060664E-1,6.125713E-1,-1.1992342E0,-8.4436256E-1,1.092253E0,-8.091551E-1,1.1459022E0,-1.2392061E0,2.3674898E-1,-6.186326E-1,1.0854354E0,3.7354457E-1,-1.2034385E0,-7.1184516E-1,1.0269915E0,6.957511E-1,-9.369413E-1,-1.2473657E0,2.81547E-1,-9.020609E-1,-5.908822E-3,-2.3485523E-1,1.1775169E0,-9.610734E-1,3.5985062E-1,1.2379485E0,-2.9259259E-1,8.0784775E-2,-1.242754E0,-8.0920213E-1,8.9965373E-1,5.742856E-1,-1.004574E0,-4.3254867E-1,1.1941926E0,-2.568362E-1,6.250429E-1,-1.236698E0,-3.1073946E-1,7.454762E-1,-1.15017E0,1.1388599E0,6.291493E-1,9.2362225E-1,-5.045552E-1,-1.1295013E0,1.0312872E0,4.3183947E-1,-6.487114E-1,-4.0978137E-1,1.2063428E0,2.1325494E-1,-1.029623E0,-1.1480541E-2,4.0022334E-1,1.2793113E0,-1.1480007E-1,-6.628735E-1,7.2636354E-1,-1.2452885E0,1.5510552E-1,1.4693737E-1,-8.891225E-1,-5.055308E-1,1.112736E0,9.334344E-1,-7.141918E-1,-1.2504135E0,5.4720086E-1,3.381486E-2,-4.9675617E-1,1.2378398E0,-1.637476E-1,8.1004605E-2,-1.244488E0,-7.6044005E-1,6.4211774E-1,1.0084646E0,-3.651466E-1,4.2282537E-1,-1.2502674E0,1.1686332E0,-2.2541751E-1,1.3441168E-1,1.0331789E0,1.0191083E0,-1.0208731E0,4.8136842E-1,-9.9584097E-1,6.2996435E-1,-1.2114023E0,1.1141014E0,-2.3302342E-1],"categories":[],"categories_nodes":[],"categories_segments":[],"categories_sizes":[],"default_left":[1,1,1,1,1,1,1,1,1,1,1,1,1,1,1,0,1,1,1,1,1,1,1,1,1,1,1,1,1,1,1,0,0,0,0,1,1,1,1,1,0,1,1,1,1,1,1,1,1,0,0,1,1,1,1,1,1,1,1,1,1,0,0,0,0,0,0,0,0,0,0,0,0,0,0,0,0,0,0,0,0,0,0,0,0,0,0,0,0,0,0,0,0,0,0,0,0,0,0,0,0,0,0,0,0,0,0],"id":4,"left_children":[1,3,5,7,9,11,13,15,17,19,21,23,25,27,29,-1,31,33,35,37,39,41,43,45,47,49,51,53,55,57,59,-1,-1,-1,-1,61,63,65,67,69,-1,71,73,75,77,79,81,83,85,-1,-1,87,89,91,93,95,97,99,101,103,105,-1,-1,-1,-1,-1,-1,-1,-1,-1,-1,-1,-1,-1,-1,-1,-1,-1,-1,-1,-1,-1,-1,-1,-1,-1,-1,-1,-1,-1,-1,-1,-1,-1,-1,-1,-1,-1,-1,-1,-1,-1,-1,-1,-1,-1,-1],"loss_changes":[1.421411E4,7.5300586E2,2.6448037E3,3.680204E2,3.3342773E2,3.1604584E2,1.246603E3,4.155307E1,7.027243E1,1.2376105E2,1.3231934E2,2.6183347E2,3.183899E1,5.788457E2,6.981831E2,0E0,1.2990051E1,1.0646744E0,3.026175E1,1.2883114E1,1.5021217E1,3.118457E1,5.466604E1,1.2962138E2,2.7559418E1,4.586646E0,1.667743E1,1.3577979E2,3.7965527E2,1.399741E2,2.2277798E2,0E0,0E0,0E0,0E0,9.14932E0,1.5466583E1,6.1957397E0,2.4652386E-1,6.1029434E0,0E0,1.7616226E1,2.4704102E1,3.7346249E0,1.9567986E1,4.0040794E1,8.576872E1,6.5935063E-1,9.686768E0,0E0,0E0,7.8131714E0,2.1243404E1,1.8903763E1,3.0010437E1,2.7768848E2,3.8437445E2,8.8259766E1,4.6159798E1,8.143994E1,8.3412285E0,0E0,0E0,0E0,0E0,0E0,0E0,0E0,0E0,0E0,0E0,0E0,0E0,0E0,0E0,0E0,0E0,0E0,0E0,0E0,0E0,0E0,0E0,0E0,0E0,0E0,0E0,0E0,0E0,0E0,0E0,0E0,0E0,0E0,0E0,0E0,0E0,0E0,0E0,0E0,0E0,0E0,0E0,0E0,0E0,0E0,0E0],"parents":[2147483647,0,0,1,1,2,2,3,3,4,4,5,5,6,6,7,7,8,8,9,9,10,10,11,11,12,12,13,13,14,14,16,16,17,17,18,18,19,19,20,20,21,21,22,22,23,23,24,24,25,25,26,26,27,27,28,28,29,29,30,30,35,35,36,36,37,37,38,38,39,39,41,41,42,42,43,43,44,44,45,45,46,46,47,47,48,48,51,51,52,52,53,53,54,54,55,55,56,56,57,57,58,58,59,59,60,60],"right_children":[2,4,6,8,10,12,14,16,18,20,22,24,26,28,30,-1,32,34,36,38,40,42,44,46,48,50,52,54,56,58,60,-1,-1,-1,-1,62,64,66,68,70,-1,72,74,76,78,80,82,84,86,-1,-1,88,90,92,94,96,98,100,102,104,106,-1,-1,-1,-1,-1,-1,-1,-1,-1,-1,-1,-1,-1,-1,-1,-1,-1,-1,-1,-1,-1,-1,-1,-1,-1,-1,-1,-1,-1,-1,-1,-1,-1,-1,-1,-1,-1,-1,-1,-1,-1,-1,-1,-1,-1,-1],"split_conditions":[-3.3177786E-2,-2.7262216E0,8.3599174E-1,-1.9015088E0,-4.146837E-1,1.0033361E0,1.465E2,1.4237378E0,-1.782774E0,4.4905758E-1,2.1906333E0,5.134472E-1,-1.2631983E0,-1.4413534E1,3.46984E0,1.2251426E-1,2.4058459E0,-2.4134935E-1,-3.7275237E-1,2.3156474E0,3.2398403E-1,-4.2633452E0,2.3078826E-1,-7.617189E-2,-1.2894347E0,3.1296376E-2,3.6467264E0,2.1389213E0,4.170933E0,7.2449102E0,2.5106144E0,-2.4947314E-1,5.6309402E-2,-1.8041219E-1,-1.1817644E-3,1.379993E0,-9.5842284E-1,-1.482768E-1,2.1525621E0,1.7262745E1,-5.8518518E-2,2.9156223E-1,9.718454E-1,-2.9596242E-1,-5.989889E-1,3.35E1,8.6414146E-1,3.35097E0,4.890973E0,-5.1367242E-2,1.2500858E-1,-1.9863122E0,2.1148944E-1,-2.750311E-4,-4.1272438E-1,5.0922184E0,6.5253454E-1,5.0762777E0,3.8732924E0,-8.213268E-2,6.862998E0,8.63679E-2,-1.2974228E-1,-8.1956275E-2,2.4126856E-1,4.265099E-2,-2.0592462E-1,-2.2961083E-3,8.004467E-2,2.5586227E-1,-2.2960015E-2,-1.325747E-1,1.4527272E-1,-2.490577E-1,3.1021103E-2,2.9387474E-2,-1.778245E-1,-1.0110616E-1,2.225472E-1,1.8668689E-1,-1.4283836E-1,-2.500827E-1,1.0944017E-1,6.7629716E-3,-9.9351235E-2,2.4756797E-1,-3.274952E-2,1.620092E-2,-2.488976E-1,-1.5208802E-1,1.2842356E-1,2.0169292E-1,-7.3029324E-2,8.456507E-2,-2.500535E-1,2.3372665E-1,-4.5083504E-2,2.6882336E-2,2.0663579E-1,2.0382166E-1,-2.0417462E-1,9.627368E-2,-1.9916819E-1,1.2599288E-1,-2.4228047E-1,2.2282028E-1,-4.6604685E-2],"split_indices":[711,802,437,147,454,420,850,144,663,180,801,456,524,489,492,0,526,232,511,713,646,525,6,596,162,780,423,492,351,877,505,0,0,0,0,626,665,343,877,765,0,181,453,845,663,843,42,161,144,0,0,456,437,527,454,355,355,558,160,237,42,0,0,0,0,0,0,0,0,0,0,0,0,0,0,0,0,0,0,0,0,0,0,0,0,0,0,0,0,0,0,0,0,0,0,0,0,0,0,0,0,0,0,0,0,0,0],"split_type":[0,0,0,0,0,0,0,0,0,0,0,0,0,0,0,0,0,0,0,0,0,0,0,0,0,0,0,0,0,0,0,0,0,0,0,0,0,0,0,0,0,0,0,0,0,0,0,0,0,0,0,0,0,0,0,0,0,0,0,0,0,0,0,0,0,0,0,0,0,0,0,0,0,0,0,0,0,0,0,0,0,0,0,0,0,0,0,0,0,0,0,0,0,0,0,0,0,0,0,0,0,0,0,0,0,0,0],"sum_hessian":[1.7965816E4,6.988853E3,1.0976964E4,3.7704257E2,6.6118105E3,1.0745969E3,9.902366E3,1.3093562E2,2.4610695E2,1.1915923E2,6.4926514E3,3.8465762E2,6.899393E2,8.870578E3,1.0317887E3,7.9506474E0,1.2298498E2,1.3109514E1,2.3299742E2,4.306892E1,7.609031E1,6.434309E3,5.834201E1,2.5901215E2,1.256455E2,8.804808E0,6.8113446E2,1.8913824E2,8.681439E3,4.8472165E2,5.470671E2,1.20639984E2,2.344995E0,1.1555682E1,1.5538318E0,1.3006768E1,2.1999066E2,3.9689747E1,3.3791752E0,7.2824554E1,3.2657576E0,1.6664488E1,6.4176445E3,2.1776104E1,3.6565907E1,6.2120823E1,1.9689131E2,6.409713E0,1.1923579E2,2.450467E0,6.35434E0,6.529537E2,2.8180786E1,4.2113594E1,1.4702466E2,6.76155E3,1.9198898E3,4.0931976E2,7.540188E1,5.0219647E2,4.4870636E1,4.8152275E0,8.191541E0,1.5666149E0,2.1842404E2,1.0247711E0,3.8664974E1,1.033142E0,2.346033E0,7.119065E1,1.6339048E0,7.6195E0,9.044988E0,6.407119E3,1.0525332E1,1.0329363E0,2.0743168E1,3.0075772E0,3.3558327E1,5.073463E1,1.1386192E1,1.7164114E2,2.5250162E1,1.3485053E0,5.061208E0,1.1637953E2,2.856257E0,3.2850807E0,6.496686E2,2.0517113E1,7.663674E0,3.4794342E1,7.3192506E0,6.867228E0,1.4015742E2,6.618544E3,1.4300612E2,8.6905334E2,1.0508363E3,3.9469687E2,1.4622901E1,2.514406E1,5.025782E1,1.9360502E1,4.8283597E2,4.3227257E1,1.643378E0],"tree_param":{"num_deleted":"0","num_feature":"893","num_nodes":"107","size_leaf_vector":"0"}},{"base_weights":[-3.9544483E-3,-8.4813094E-1,8.036413E-1,-1.1445403E0,-5.3270277E-2,1.0011468E0,2.0497914E-1,-3.066074E-1,-1.1901412E0,9.433172E-1,-5.874081E-1,1.0377572E0,-5.6839496E-1,9.109522E-1,-2.7264684E-1,8.520759E-1,-1.1428363E0,2.3192367E-1,-1.1952361E0,-8.05089E-1,1.1386813E0,1.1921667E0,-9.004431E-1,1.061669E0,-6.9256425E-1,-1.1873394E0,4.5890066E-1,1.0324849E0,-4.2846867E-1,1.9119322E-1,-9.050068E-1,1.0341718E0,-4.8604077E-1,-1.2054493E0,1.7320323E-1,-5.93521E-1,7.0746213E-1,-1.199607E0,1.1951699E-1,4.6536094E-1,-1.1541932E0,-5.370655E-1,1.2237695E0,-3.8374618E-1,1.2399132E0,-1.0183648E0,1.0867903E0,1.0822414E0,-1.8222259E-1,-1.1326221E0,8.143703E-1,-1.2398473E0,2.0872703E-1,-7.7683634E-1,1.0034355E0,1.1041465E0,-4.7629994E-1,-9.60093E-1,4.529043E-1,-1.1225313E0,5.7859045E-1,-1.3026677E0,-1.6658585E-1,1.1448604E0,-5.160685E-1,2.558471E-1,-6.805406E-1,4.2573473E-1,-2.528415E-1,-1.2023149E0,-2.2681408E-1,6.366337E-1,-4.8262292E-1,7.5918746E-1,-4.4199347E-1,1.8393351E-1,-1.2106825E0,5.1479924E-1,-1.1250973E0,1.2445091E0,-4.9586427E-1,4.3908802E-1,-1.1120527E0,-2.2799122E-1,1.1620376E0,1.1006179E0,3.5046664E-1,-9.717542E-1,9.3008196E-1,-3.0920675E-2,-1.1460936E0,2.5744135E-2,-1.2733343E0,1.2063007E0,1.18867226E-1,-1.0969157E0,4.7369695E-1,-1.516699E0,5.485349E-1,-4.5533305E-1,7.34953E-1,-1.2924833E0,3.0210376E-1,9.735171E-1,-2.3716527E-1,-1.3541297E0,1.8328154E-1,4.6163842E-1,-8.413482E-1],"categories":[],"categories_nodes":[],"categories_segments":[],"categories_sizes":[],"default_left":[1,1,1,1,1,1,1,1,1,1,1,1,1,1,1,1,1,1,1,1,1,1,1,1,1,1,1,1,1,1,1,1,1,0,1,0,0,1,1,1,1,1,1,0,0,1,1,1,1,1,0,1,0,0,0,1,1,1,1,1,1,1,1,0,0,0,0,0,0,0,0,0,0,0,0,0,0,0,0,0,0,0,0,0,0,0,0,0,0,0,0,0,0,0,0,0,0,0,0,0,0,0,0,0,0,0,0,0,0],"id":5,"left_children":[1,3,5,7,9,11,13,15,17,19,21,23,25,27,29,31,33,35,37,39,41,43,45,47,49,51,53,55,57,59,61,63,65,-1,67,-1,-1,69,71,73,75,77,79,-1,-1,81,83,85,87,89,-1,91,-1,-1,-1,93,95,97,99,101,103,105,107,-1,-1,-1,-1,-1,-1,-1,-1,-1,-1,-1,-1,-1,-1,-1,-1,-1,-1,-1,-1,-1,-1,-1,-1,-1,-1,-1,-1,-1,-1,-1,-1,-1,-1,-1,-1,-1,-1,-1,-1,-1,-1,-1,-1,-1,-1],"loss_changes":[1.0825637E4,1.8285503E3,9.5750684E2,2.1241016E2,1.1336523E3,3.5639355E2,6.8555396E2,3.0555737E2,4.159961E1,2.6307416E2,7.827855E2,2.541211E2,9.7960526E1,1.3786963E2,3.5839734E2,3.7606453E1,1.705188E1,1.4996259E1,3.2131348E1,4.1105312E1,1.0250018E2,2.0681519E1,2.8859198E2,1.5261328E2,6.7148254E1,9.447754E0,4.9457844E1,8.683844E1,3.961301E1,3.6769452E2,1.4942865E2,2.6652039E1,5.033821E0,0E0,2.9045143E0,0E0,0E0,1.1298828E1,1.1415421E1,9.885733E0,7.221504E0,3.0199152E1,2.9114319E1,0E0,0E0,1.5823962E2,9.691093E0,7.403662E1,1.0066492E2,7.110901E-1,0E0,4.211151E0,0E0,0E0,0E0,7.1368164E1,2.9485632E1,5.0431812E1,1.2340822E1,4.386064E1,1.8101086E2,2.8030212E1,8.5347855E1,0E0,0E0,0E0,0E0,0E0,0E0,0E0,0E0,0E0,0E0,0E0,0E0,0E0,0E0,0E0,0E0,0E0,0E0,0E0,0E0,0E0,0E0,0E0,0E0,0E0,0E0,0E0,0E0,0E0,0E0,0E0,0E0,0E0,0E0,0E0,0E0,0E0,0E0,0E0,0E0,0E0,0E0,0E0,0E0,0E0,0E0],"parents":[2147483647,0,0,1,1,2,2,3,3,4,4,5,5,6,6,7,7,8,8,9,9,10,10,11,11,12,12,13,13,14,14,15,15,16,16,17,17,18,18,19,19,20,20,21,21,22,22,23,23,24,24,25,25,26,26,27,27,28,28,29,29,30,30,31,31,32,32,34,34,37,37,38,38,39,39,40,40,41,41,42,42,45,45,46,46,47,47,48,48,49,49,51,51,55,55,56,56,57,57,58,58,59,59,60,60,61,61,62,62],"right_children":[2,4,6,8,10,12,14,16,18,20,22,24,26,28,30,32,34,36,38,40,42,44,46,48,50,52,54,56,58,60,62,64,66,-1,68,-1,-1,70,72,74,76,78,80,-1,-1,82,84,86,88,90,-1,92,-1,-1,-1,94,96,98,100,102,104,106,108,-1,-1,-1,-1,-1,-1,-1,-1,-1,-1,-1,-1,-1,-1,-1,-1,-1,-1,-1,-1,-1,-1,-1,-1,-1,-1,-1,-1,-1,-1,-1,-1,-1,-1,-1,-1,-1,-1,-1,-1,-1,-1,-1,-1,-1,-1],"split_conditions":[9.117527E-1,-1.2943735E-2,3.8680344E0,-1.8384991E0,-2.5925722E0,6.5656643E0,1.2970816E0,-4.3358493E-1,-3.4045072E0,-2.0916924E0,-1.0228081E0,7.960368E0,-1.9080086E-1,2.6383403E-1,4.15E1,8.438645E0,-1.1615976E0,-1.2908366E-1,1.199954E0,-4.1411343E0,-2.2570682E-1,1.6639448E0,1.3145661E0,8.405478E0,2.8927472E0,4.7970793E-1,-1.413656E1,2.4063196E0,-1.0202641E0,-2.028641E0,1.6768694E0,7.789557E-1,-4.82916E-1,-2.4108987E-1,2.0341097E-1,-1.187042E-1,1.4149243E-1,2.7242289E0,1E2,5.7973015E-1,-3.830103E0,1.1581504E0,3.35E2,-7.6749235E-2,2.4798265E-1,7.2739705E-2,-7.774036E0,3.265E2,-1.7207575E-1,-2.0361743E0,1.6287406E-1,-2.1502683E-2,4.1745406E-2,-1.5536727E-1,2.006871E-1,5.6593323E0,2.56364E0,6.9067633E-1,1.5922646E-1,3.537601E0,1.3787344E-1,1.7230343E0,1.5032194E1,2.2897208E-1,-1.03213705E-1,5.116942E-2,-1.3610813E-1,8.514695E-2,-5.05683E-2,-2.4046297E-1,-4.5362815E-2,1.2732674E-1,-9.652459E-2,1.518375E-1,-8.8398695E-2,3.67867E-2,-2.4213651E-1,1.0295985E-1,-2.2501945E-1,2.4890183E-1,-9.917285E-2,8.78176E-2,-2.2241054E-1,-4.5598246E-2,2.3240753E-1,2.2012357E-1,7.0093326E-2,-1.9435084E-1,1.860164E-1,-6.184135E-3,-2.2921872E-1,5.148827E-3,-2.5466686E-1,2.4126016E-1,2.3773445E-2,-2.1938315E-1,9.473939E-2,-3.033398E-1,1.0970699E-1,-9.1066614E-2,1.469906E-1,-2.5849667E-1,6.042075E-2,1.9470343E-1,-4.7433056E-2,-2.7082595E-1,3.665631E-2,9.2327684E-2,-1.6826963E-1],"split_indices":[801,780,144,802,23,575,626,781,456,492,524,489,510,597,843,351,231,93,522,483,509,574,455,22,492,733,558,286,146,629,424,388,455,0,459,0,0,250,850,543,564,783,831,0,0,838,574,831,510,456,0,796,0,0,0,663,457,665,711,801,597,524,847,0,0,0,0,0,0,0,0,0,0,0,0,0,0,0,0,0,0,0,0,0,0,0,0,0,0,0,0,0,0,0,0,0,0,0,0,0,0,0,0,0,0,0,0,0,0],"split_type":[0,0,0,0,0,0,0,0,0,0,0,0,0,0,0,0,0,0,0,0,0,0,0,0,0,0,0,0,0,0,0,0,0,0,0,0,0,0,0,0,0,0,0,0,0,0,0,0,0,0,0,0,0,0,0,0,0,0,0,0,0,0,0,0,0,0,0,0,0,0,0,0,0,0,0,0,0,0,0,0,0,0,0,0,0,0,0,0,0,0,0,0,0,0,0,0,0,0,0,0,0,0,0,0,0,0,0,0,0],"sum_hessian":[1.5859112E4,7.7537E3,8.105412E3,5.644446E3,2.1092546E3,6.089646E3,2.0157661E3,2.953071E2,5.3491387E3,7.3333923E2,1.3759154E3,5.9541504E3,1.3549567E2,8.097751E2,1.2059911E3,1.2370763E2,1.7159947E2,1.7506948E1,5.331632E3,7.056953E1,6.627697E2,2.01623E2,1.1742924E3,5.8768013E3,7.7349075E1,8.358055E1,5.1915108E1,7.4451306E2,6.5262E1,6.997191E2,5.0627194E2,1.10888885E2,1.281874E1,1.6460825E2,6.991217E0,5.492309E0,1.2014639E1,5.3148384E3,1.6793531E1,1.4493831E1,5.607569E1,2.9459948E1,6.3330975E2,3.8596678E0,1.9776334E2,1.113116E3,6.1176437E1,5.7824663E3,9.433484E1,6.1789207E1,1.5559868E1,8.1629364E1,1.9511917E0,1.4574499E1,3.7340607E1,7.133152E2,3.1197886E1,4.0150795E1,2.5111204E1,1.550259E2,5.4469324E2,3.240958E2,1.8217616E2,1.0593965E2,4.949236E0,2.00747E0,1.081127E1,4.394011E0,2.597206E0,5.2977324E3,1.7105637E1,8.726432E0,8.067099E0,1.2181938E1,2.3118927E0,1.3575368E0,5.4718155E1,1.1010274E1,1.8449673E1,6.284928E2,4.81698E0,6.50047E1,1.0481112E3,2.212847E0,5.8963593E1,5.6358965E3,1.4656999E2,5.5911533E1,3.8423306E1,1.1445032E0,6.0644703E1,2.1638036E0,7.946555E1,6.442733E2,6.9041855E1,1.7934853E1,1.3263033E1,2.9290579E1,1.0860214E1,4.494498E0,2.0616707E1,1.393319E2,1.5693999E1,3.657103E2,1.7898296E2,3.1410468E2,9.991096E0,9.597708E1,8.619908E1],"tree_param":{"num_deleted":"0","num_feature":"893","num_nodes":"109","size_leaf_vector":"0"}},{"base_weights":[-4.6573426E-3,6.4621174E-1,-9.2680043E-1,-8.6982554E-1,7.699772E-1,2.6232305E-1,-1.065675E0,-9.912772E-1,7.718109E-1,9.655643E-1,3.6369634E-1,8.9370364E-1,-9.936267E-1,5.97264E-1,-1.116204E0,-2.185966E-1,-1.1056176E0,-3.446204E-1,9.6645445E-1,1.0058064E0,-7.046173E-1,7.980523E-1,-8.980729E-2,-7.799241E-1,9.997802E-1,-1.1574953E0,5.726093E-1,1.0743479E0,-6.546145E-1,-1.1297815E0,-1.838763E-1,-6.523884E-1,8.144954E-1,2.4376231E-1,-1.1189111E0,1.023229E0,-4.7603416E-1,-1.1165148E0,6.05478E-1,9.1181374E-1,-3.9020425E-1,-5.808542E-1,5.70734E-1,-1.030555E0,3.1928453E-1,1.0700113E0,-5.497313E-1,5.8284197E-2,-1.1799424E0,7.683318E-1,-3.2095915E-1,1.1931173E0,-3.9118582E-1,-7.8187263E-1,3.1530878E-1,-1.1367501E0,2.7641082E-1,-7.7086526E-1,6.5007085E-1,4.532946E-1,-7.77909E-1,-4.80743E-2,3.082798E-1,1.4572772E-1,-1.127945E0,1.0596018E0,4.2467985E-1,5.763413E-1,-9.647518E-1,-1.2365355E0,3.5732886E-1,-3.1543827E-1,8.639303E-1,-6.1703056E-1,9.812513E-1,-1.0157367E0,8.2103974E-1,8.153316E-3,-1.1685839E0,6.688356E-1,-5.530312E-1,5.6866538E-2,-1.1038103E0,1.105123E0,-5.2577883E-1,-7.168461E-1,2.2138163E-1,-1.5144911E-1,2.0999119E-1,-1.1906669E0,5.350636E-3,6.2283095E-2,-4.610466E-1,-8.746896E-1,2.0664865E-1,4.803149E-3,3.39207E-1,-6.488506E-1,-1.1492051E0,-5.299864E-1,7.1540207E-1,-8.846487E-1,2.966328E-1,-2.3480718E-1,8.6844337E-1],"categories":[],"categories_nodes":[],"categories_segments":[],"categories_sizes":[],"default_left":[1,1,1,1,1,1,1,1,1,1,1,1,1,1,1,1,1,0,0,1,1,1,1,1,1,1,1,1,1,1,1,1,0,1,1,1,1,1,1,1,1,1,1,1,0,1,1,1,1,0,0,0,1,1,1,1,1,1,1,0,0,0,0,0,0,0,0,0,0,0,0,0,0,0,0,0,0,0,0,0,0,0,0,0,0,0,0,0,0,0,0,0,0,0,0,1,1,0,0,0,0,0,0,0,0],"id":6,"left_children":[1,3,5,7,9,11,13,15,17,19,21,23,25,27,29,31,33,-1,-1,35,37,39,41,43,45,47,49,51,53,55,57,59,-1,61,63,65,67,69,71,73,75,77,79,81,-1,83,85,87,89,-1,-1,-1,91,93,-1,97,99,101,103,-1,-1,-1,-1,-1,-1,-1,-1,-1,-1,-1,-1,-1,-1,-1,-1,-1,-1,-1,-1,-1,-1,-1,-1,-1,-1,-1,-1,-1,-1,-1,-1,-1,-1,-1,-1,-1,-1,-1,-1,-1,-1,-1,-1,-1,-1],"loss_changes":[8.348907E3,1.5367822E3,9.5328467E2,1.3130112E2,5.9599854E2,4.9253806E2,4.3988916E2,4.898712E1,1.3835976E1,3.489756E2,4.868192E2,8.07894E1,6.021187E1,1.0172966E2,6.130664E1,4.4510742E1,1.1774902E1,0E0,0E0,1.3321436E2,7.451512E1,1.7408423E2,3.9781537E2,1.1589272E1,4.8434814E1,5.9360046E0,7.0944996E0,2.5309097E1,8.632502E0,5.148633E1,4.6041183E1,1.284597E1,0E0,3.9545083E-1,7.369995E0,1.02538574E2,3.8781704E1,2.1938194E1,1.1416772E1,1.2859125E2,9.715701E1,2.433156E2,6.142929E1,2.7701836E0,0E0,2.6960052E1,4.623084E0,7.3216003E-1,2.4700317E0,0E0,0E0,0E0,8.073697E-1,6.123831E0,7.9591274E-2,2.2386719E1,1.5251257E1,9.154919E0,9.778141E0,0E0,0E0,0E0,0E0,0E0,0E0,0E0,0E0,0E0,0E0,0E0,0E0,0E0,0E0,0E0,0E0,0E0,0E0,0E0,0E0,0E0,0E0,0E0,0E0,0E0,0E0,0E0,0E0,0E0,0E0,0E0,0E0,0E0,0E0,0E0,0E0,0E0,0E0,0E0,0E0,0E0,0E0,0E0,0E0,0E0,0E0],"parents":[2147483647,0,0,1,1,2,2,3,3,4,4,5,5,6,6,7,7,8,8,9,9,10,10,11,11,12,12,13,13,14,14,15,15,16,16,19,19,20,20,21,21,22,22,23,23,24,24,25,25,26,26,27,27,28,28,29,29,30,30,31,31,33,33,34,34,35,35,36,36,37,37,38,38,39,39,40,40,41,41,42,42,43,43,45,45,46,46,47,47,48,48,52,52,53,53,54,54,55,55,56,56,57,57,58,58],"right_children":[2,4,6,8,10,12,14,16,18,20,22,24,26,28,30,32,34,-1,-1,36,38,40,42,44,46,48,50,52,54,56,58,60,-1,62,64,66,68,70,72,74,76,78,80,82,-1,84,86,88,90,-1,-1,-1,92,94,-1,98,100,102,104,-1,-1,-1,-1,-1,-1,-1,-1,-1,-1,-1,-1,-1,-1,-1,-1,-1,-1,-1,-1,-1,-1,-1,-1,-1,-1,-1,-1,-1,-1,-1,-1,-1,-1,-1,-1,-1,-1,-1,-1,-1,-1,-1,-1,-1,-1],"split_conditions":[-9.159308E-3,6.3691247E-1,-1.9932413E0,1.2756968E0,5.849241E0,1.723357E0,-4.2249706E-1,-6.528493E-1,2.9466887E0,5.0341883E0,1.7704904E0,-1.5266241E0,2.7277448E0,-2.3962803E0,1.5746605E0,1.864779E0,-2.095212E0,-6.8924084E-2,1.9329089E-1,-7.32792E-2,3.5617967E0,-5.951019E-1,6.008412E-1,1.7649157E0,9.765584E0,-2.017787E0,8.438389E0,-2.1952584E0,5.979108E-2,2.8398275E0,-2.99838E-1,5.7525918E-2,1.6289908E-1,2.7635694E0,1.9983873E-2,3.8074937E0,-2.5067356E-1,4.3813357E0,-1.4607722E-1,-3.0610304E0,2.7303777E0,4.65E1,3.625E2,2.0760726E-2,6.385691E-2,2.5827296E0,-6.1281145E-1,-1.1386745E0,-6.726487E-1,1.5366636E-1,-6.419183E-2,2.3862346E-1,-1.8134859E0,4.7856852E-2,6.306176E-2,-2.2661905E0,-1.6404734E0,4.3584585E-1,-4.20647E-1,9.0658925E-2,-1.555818E-1,-9.614861E-3,6.1655965E-2,2.9145544E-2,-2.2558899E-1,2.1192037E-1,8.493597E-2,1.1526825E-1,-1.9295035E-1,-2.473071E-1,7.1465775E-2,-6.308766E-2,1.7278606E-1,-1.2340611E-1,1.9625026E-1,-2.0314734E-1,1.6420795E-1,1.6306632E-3,-2.3371677E-1,1.3376711E-1,-1.10606246E-1,1.1373308E-2,-2.2076206E-1,2.2102462E-1,-1.05155766E-1,-1.4336923E-1,4.4276327E-2,-3.0289823E-2,4.1998237E-2,-2.3813339E-1,1.0701272E-3,1.2456619E-2,-9.2209324E-2,-1.7493792E-1,4.132973E-2,9.6062984E-4,6.78414E-2,-1.2977013E-1,-2.2984102E-1,-1.0599728E-1,1.4308041E-1,-1.7692974E-1,5.932656E-2,-4.6961438E-2,1.7368868E-1],"split_indices":[228,437,802,526,765,369,454,420,643,769,626,663,526,318,42,594,456,0,0,438,772,249,770,803,558,764,5,23,721,526,366,838,0,877,838,299,420,574,316,594,632,843,831,435,0,181,629,11,78,0,0,0,69,542,524,22,527,780,646,0,0,0,0,0,0,0,0,0,0,0,0,0,0,0,0,0,0,0,0,0,0,0,0,0,0,0,0,0,0,0,0,0,0,0,0,2147483647,2147483647,0,0,0,0,0,0,0,0],"split_type":[0,0,0,0,0,0,0,0,0,0,0,0,0,0,0,0,0,0,0,0,0,0,0,0,0,0,0,0,0,0,0,0,0,0,0,0,0,0,0,0,0,0,0,0,0,0,0,0,0,0,0,0,0,0,0,0,0,0,0,0,0,0,0,0,0,0,0,0,0,0,0,0,0,0,0,0,0,0,0,0,0,0,0,0,0,0,0,0,0,0,0,0,0,0,0,0,0,0,0,0,0,0,0,0,0],"sum_hessian":[1.3890359E4,8.1446655E3,5.745694E3,6.101758E2,7.5344897E3,5.999227E2,5.145771E3,5.718321E2,3.8343662E1,5.076739E3,2.4577507E3,4.0114615E2,1.9877661E2,1.4855447E2,4.9972163E3,7.746479E1,4.9436734E2,4.548618E0,3.3795044E1,4.9611797E3,1.155592E2,1.2514968E3,1.206254E3,2.0123405E1,3.8102274E2,1.823118E2,1.6464802E1,1.08589676E2,3.99648E1,4.9233994E3,7.381721E1,5.7151966E1,2.0312828E1,3.1315022E0,4.9123584E2,4.906586E3,5.4593643E1,8.904182E1,2.651738E1,1.1442727E3,1.0722402E2,6.925892E2,5.1366486E2,1.6895605E1,3.2278006E0,3.6746216E2,1.3560566E1,3.0155923E0,1.7929622E2,1.4656133E1,1.8086698E0,1.0216857E2,6.4210978E0,3.704337E1,2.9214318E0,4.9010273E3,2.2371983E1,4.376725E1,3.0049953E1,3.1643898E0,5.3987576E1,1.0283834E0,2.1031187E0,2.4109495E0,4.888249E2,4.61824E3,2.883457E2,1.6744373E1,3.784927E1,8.38257E1,5.216118E0,5.32795E0,2.118943E1,4.628694E1,1.0979858E3,7.177222E1,3.54518E1,3.5084384E2,3.4174533E2,4.7614685E2,3.7518E1,1.2075526E0,1.5688052E1,3.6255963E2,4.902545E0,1.1723589E1,1.8369772E0,1.2728662E0,1.7427262E0,1.7764354E2,1.6526693E0,1.0019686E0,5.4191294E0,3.491644E1,2.1269333E0,1.0670648E0,1.854367E0,1.3521414E2,4.765813E3,7.15532E0,1.5216662E1,4.1099392E1,2.6678605E0,5.798989E0,2.4250965E1],"tree_param":{"num_deleted":"2","num_feature":"893","num_nodes":"105","size_leaf_vector":"0"}},{"base_weights":[-5.641535E-3,-9.7525406E-1,5.366172E-1,-7.276046E-2,-1.0643831E0,-4.2362934E-1,7.065924E-1,7.4027693E-1,-9.641077E-1,2.4929655E-1,-1.0945113E0,8.26173E-1,-8.253242E-1,8.2062334E-1,-1.2522656E-1,-7.9536825E-1,9.1916513E-1,4.032934E-1,-1.082781E0,1.0452197E0,-5.857597E-1,-1.1000711E0,-3.5852308E-3,-7.2987336E-1,9.93586E-1,3.9491007E-1,-9.4378126E-1,3.2181376E-1,9.6737075E-1,-5.689891E-1,9.3680346E-1,-9.5671916E-1,2.1961819E-1,-4.5002234E-1,1.0117759E0,-3.1820038E-1,6.613039E-1,-1.0917953E0,4.4579923E-2,-1.2231329E-1,1.1187195E0,2.9481748E-1,-7.755443E-1,9.467043E-2,-1.1044183E0,6.4585656E-1,-5.454788E-1,-8.882849E-1,2.684084E-1,-4.2417517E-1,1.0773373E0,8.068945E-1,-7.8958905E-1,7.8604734E-1,-1.0011572E0,5.380515E-1,-9.692806E-1,1.065005E0,7.6231873E-1,7.0181805E-1,-8.952053E-1,1.0823659E0,-4.074657E-1,-8.202972E-3,-9.921676E-1,2.0515457E-1,-6.4035964E-1,1.0722129E0,-3.575108E-1,-2.0755716E-2,-1.0977904E0,2.7650017E-3,-1.3672534E-1,4.9805292E-1,-1.870122E-1,1.8885596E-1,-8.4357435E-1,-4.9286526E-1,5.8168894E-1,-1.1096617E0,-1.3070314E-1,-1.9654974E-1,9.3811595E-1,7.61003E-2,-6.155582E-1,-7.183489E-1,3.4636116E-1,-3.8143113E-1,1.1142491E0,-3.7375098E-1,9.6631145E-1,4.9501102E-2,-8.545248E-1,-7.129379E-2,8.372804E-1,2.5590503E-1,-1.0727099E0,9.680262E-1,-1.4739876E-2,-1.3495556E0,7.352504E-1,1.0744534E0,-3.2998008E-1,-4.0734026E-1,8.168749E-1,9.165831E-1,-5.1265997E-1,6.422591E-2,-1.0378013E0,-3.8366458E-1,1.1102207E0,-7.397706E-1,4.8808405E-1],"categories":[],"categories_nodes":[],"categories_segments":[],"categories_sizes":[],"default_left":[1,1,1,1,1,1,1,1,1,1,1,1,1,1,1,1,1,1,1,1,1,1,1,1,1,1,1,1,1,1,1,1,0,1,1,0,0,1,0,1,0,1,1,1,1,1,1,0,0,1,1,1,1,1,1,1,1,1,1,1,1,1,1,0,0,0,0,0,0,0,0,1,1,0,0,0,0,0,0,0,0,0,0,0,0,0,0,0,0,0,0,0,0,0,0,0,0,0,0,0,0,0,0,0,0,0,0,0,0,0,0,0,0],"id":7,"left_children":[1,3,5,7,9,11,13,15,17,19,21,23,25,27,29,31,33,35,37,39,41,43,45,47,49,51,53,55,57,59,61,63,-1,65,67,-1,-1,69,-1,-1,-1,73,75,77,79,81,83,-1,-1,85,87,89,91,93,95,97,99,101,103,105,107,109,111,-1,-1,-1,-1,-1,-1,-1,-1,-1,-1,-1,-1,-1,-1,-1,-1,-1,-1,-1,-1,-1,-1,-1,-1,-1,-1,-1,-1,-1,-1,-1,-1,-1,-1,-1,-1,-1,-1,-1,-1,-1,-1,-1,-1,-1,-1,-1,-1,-1,-1],"loss_changes":[6.3986523E3,3.5033057E2,1.2769038E3,2.992334E2,1.5992871E2,5.992487E2,6.3037036E2,6.677025E1,3.6272003E1,7.072112E1,2.3521973E1,8.332414E1,1.3353271E2,4.2410107E2,3.8640372E2,6.677519E0,2.972348E1,6.3833895E0,2.352829E0,5.946842E0,1.1284048E1,2.111914E1,1.3985816E1,7.781742E0,3.6378876E1,4.8589508E1,8.940509E1,3.797944E2,8.206494E1,2.4527844E2,5.1777206E1,7.9208755E-1,0E0,3.7451305E0,1.9474457E1,0E0,0E0,9.4433594E-1,0E0,2.5726289E-2,0E0,2.5757542E0,4.6798363E0,9.511813E0,1.8214355E1,6.3005342E0,1.4105625E0,0E0,0E0,7.501458E0,1.8022339E1,1.6623676E1,1.9148369E0,2.0014248E0,7.46604E1,2.7482504E2,1.3699756E2,4.3435303E1,9.82926E1,3.687615E1,6.402939E1,1.3290497E1,1.2811207E1,0E0,0E0,0E0,0E0,0E0,0E0,0E0,0E0,0E0,0E0,0E0,0E0,0E0,0E0,0E0,0E0,0E0,0E0,0E0,0E0,0E0,0E0,0E0,0E0,0E0,0E0,0E0,0E0,0E0,0E0,0E0,0E0,0E0,0E0,0E0,0E0,0E0,0E0,0E0,0E0,0E0,0E0,0E0,0E0,0E0,0E0,0E0,0E0,0E0,0E0],"parents":[2147483647,0,0,1,1,2,2,3,3,4,4,5,5,6,6,7,7,8,8,9,9,10,10,11,11,12,12,13,13,14,14,15,15,16,16,17,17,18,18,19,19,20,20,21,21,22,22,23,23,24,24,25,25,26,26,27,27,28,28,29,29,30,30,31,31,33,33,34,34,37,37,39,39,41,41,42,42,43,43,44,44,45,45,46,46,49,49,50,50,51,51,52,52,53,53,54,54,55,55,56,56,57,57,58,58,59,59,60,60,61,61,62,62],"right_children":[2,4,6,8,10,12,14,16,18,20,22,24,26,28,30,32,34,36,38,40,42,44,46,48,50,52,54,56,58,60,62,64,-1,66,68,-1,-1,70,-1,-1,-1,74,76,78,80,82,84,-1,-1,86,88,90,92,94,96,98,100,102,104,106,108,110,112,-1,-1,-1,-1,-1,-1,-1,-1,-1,-1,-1,-1,-1,-1,-1,-1,-1,-1,-1,-1,-1,-1,-1,-1,-1,-1,-1,-1,-1,-1,-1,-1,-1,-1,-1,-1,-1,-1,-1,-1,-1,-1,-1,-1,-1,-1,-1,-1,-1,-1],"split_conditions":[-4.1232042E-2,-1.7684824E0,6.4781505E-1,1.7815657E0,-3.8927197E-1,-1.1986301E0,1.445E2,-1.5266241E0,-1.3139188E0,-2.851084E0,1.1785417E0,-1.1916481E1,-1.5116746E0,-8.6831963E-1,6.1295066E0,9.903389E0,-4.0493792E-1,-5.559053E-1,3.6896482E0,-2.682951E0,1.855E2,-4.2569976E0,2.5460901E0,3.2882695E0,1.044714E0,2.305E2,-2.129209E0,-4.186056E-1,1.965E2,1.9652027E1,5.1556935E0,-6.1554513E0,4.392364E-2,-2.1363177E0,4.633086E-1,-6.364008E-2,1.3226078E-1,-8.297395E-2,8.915985E-3,-2.4462659E-2,2.237439E-1,3.217399E-1,-9.4479404E-2,2.9156223E-1,2.5971994E0,5.417889E0,-2.2790067E-2,-1.77657E-1,5.368168E-2,1.1811211E0,-2.40345E0,-5.82267E0,-6.2574606E0,-2.0098987E0,-8.3103347E-1,2.5523953E0,1.5700108E0,1.7032582E-1,-9.1863286E-1,-1.4525697E-1,-4.7232685E0,-9.988557E-1,4.2483523E-2,-1.6405944E-3,-1.9843352E-1,4.1030914E-2,-1.2807193E-1,2.144426E-1,-7.1502164E-2,-4.151143E-3,-2.1955808E-1,5.5300037E-4,-2.7345067E-2,9.961059E-2,-3.740244E-2,3.777119E-2,-1.6871487E-1,-9.857305E-2,1.1633779E-1,-2.2193234E-1,-2.6140628E-2,-3.930995E-2,1.8762319E-1,1.522006E-2,-1.2311164E-1,-1.4366978E-1,6.9272235E-2,-7.628623E-2,2.2284983E-1,-7.47502E-2,1.932623E-1,9.900221E-3,-1.7090496E-1,-1.4258759E-2,1.6745608E-1,5.1181007E-2,-2.1454199E-1,1.9360524E-1,-2.9479752E-3,-2.6991114E-1,1.4705008E-1,2.1489067E-1,-6.599601E-2,-8.146805E-2,1.6337499E-1,1.8331663E-1,-1.0253199E-1,1.2845183E-2,-2.0756026E-1,-7.673292E-2,2.2204414E-1,-1.4795412E-1,9.7616814E-2],"split_indices":[711,802,457,645,454,525,850,663,712,23,522,558,802,300,801,282,436,182,319,352,831,525,356,91,506,831,800,527,831,856,144,420,0,525,303,0,0,383,0,0,0,579,308,181,250,866,433,0,0,455,300,644,420,713,456,890,42,438,561,228,802,182,789,0,0,0,0,0,0,0,0,2147483647,2147483647,0,0,0,0,0,0,0,0,0,0,0,0,0,0,0,0,0,0,0,0,0,0,0,0,0,0,0,0,0,0,0,0,0,0,0,0,0,0,0,0],"split_type":[0,0,0,0,0,0,0,0,0,0,0,0,0,0,0,0,0,0,0,0,0,0,0,0,0,0,0,0,0,0,0,0,0,0,0,0,0,0,0,0,0,0,0,0,0,0,0,0,0,0,0,0,0,0,0,0,0,0,0,0,0,0,0,0,0,0,0,0,0,0,0,0,0,0,0,0,0,0,0,0,0,0,0,0,0,0,0,0,0,0,0,0,0,0,0,0,0,0,0,0,0,0,0,0,0,0,0,0,0,0,0,0,0],"sum_hessian":[1.21498545E4,4.354891E3,7.7949634E3,3.9305902E2,3.9618323E3,1.1700477E3,6.6249155E3,2.0644563E2,1.8661337E2,8.719336E1,3.874639E3,2.8202124E2,8.880264E2,5.826339E3,7.985766E2,1.7944172E1,1.8850146E2,1.2987108E1,1.7362627E2,4.3354145E1,4.383921E1,3.854909E3,1.972993E1,2.4131365E1,2.578899E2,7.651389E1,8.115125E2,1.3316962E3,4.4946426E3,5.6650745E2,2.3206914E2,1.59782095E1,1.9659619E0,9.497297E0,1.7900417E2,2.8064313E0,1.0180677E1,1.7256194E2,1.0643321E0,2.174303E0,4.1179844E1,6.7917967E0,3.7047413E1,1.3222383E1,3.8416865E3,8.101744E0,1.1628187E1,2.1777483E1,2.3538818E0,1.211736E1,2.4577252E2,5.9134144E1,1.737975E1,2.197543E1,7.895371E2,1.1456506E3,1.8604562E2,3.016444E3,1.4781985E3,1.13365845E2,4.5314163E2,2.11153E2,2.0916138E1,1.0192618E0,1.4958947E1,1.9627321E0,7.5345654E0,1.7351515E2,5.489011E0,1.2088914E0,1.7135304E2,1.0596187E0,1.1146845E0,4.5400887E0,2.251708E0,1.2708627E0,3.577655E1,5.938349E0,7.2840333E0,3.8197214E3,2.1965088E1,2.9302971E0,5.1714463E0,1.0911276E0,1.053706E1,9.259554E0,2.8578057E0,3.761969E0,2.4201056E2,5.435303E0,5.369884E1,1.4191116E0,1.5960638E1,1.0183657E0,2.0957064E1,4.113304E1,7.4840405E2,6.4018634E2,5.0546426E2,1.53813E2,3.223262E1,2.998433E3,1.8010983E1,6.2993046E1,1.4152054E3,9.841522E1,1.4950622E1,5.934505E1,3.9379657E2,1.5553508E0,2.0959766E2,1.6524134E1,4.3920045E0],"tree_param":{"num_deleted":"2","num_feature":"893","num_nodes":"113","size_leaf_vector":"0"}},{"base_weights":[-6.158766E-3,5.3214544E-1,-8.7575316E-1,6.643115E-1,-6.541616E-1,1.4713621E-1,-1.0058057E0,9.0553945E-1,3.0810782E-1,-1.1143429E0,6.9166166E-1,8.631406E-1,-8.512321E-1,4.831826E-1,-1.054594E0,9.34214E-1,-1.0100633E0,5.893414E-1,-3.3567968E-1,-1.1296394E0,1.23403765E-1,-5.4495084E-1,8.7115705E-1,9.850437E-1,-7.175648E-1,4.994676E-1,-1.0761201E0,9.6509916E-1,-5.5064E-1,-1.0633173E0,1.9613957E-2,9.565094E-1,-3.5885802E-1,-1.1302253E0,9.8918244E-2,-9.001353E-1,7.229693E-1,-7.753622E-1,5.8203405E-1,1.9229457E-1,-1.1402452E0,-2.227758E-1,3.6133435E-1,-6.745259E-1,1.8460114E-1,-2.7517602E-1,1.0078691E0,-3.8060874E-1,1.0560597E0,-9.229263E-1,2.0219867E-1,-4.4433492E-1,7.768622E-1,-1.1133671E0,2.7454424E-1,1.0935533E0,-3.3591717E-1,-6.939514E-1,2.9471794E-1,-1.0683548E0,2.2055495E-1,-5.969489E-1,6.440865E-1,1.0559577E0,7.336952E-1,5.118497E-1,-8.26128E-1,-1.5082853E-2,-1.1546435E0,-2.9761738E-1,3.4457475E-1,-1.2992879E0,2.5544956E-1,8.315188E-1,-4.894279E-1,-1.0387987E0,2.428202E-1,-4.9456677E-1,7.5561446E-1,7.2428435E-2,-1.1508213E0,2.463549E-1,-4.4916477E-2,3.3012694E-1,-6.938843E-1,1.0737478E0,-1.5777537E-1,-6.814809E-1,3.0505478E-1,-2.7530742E-1,1.0895721E0,-5.4536206E-1,6.8734325E-2,8.0807775E-1,-1.4270364E-2,-1.1335542E0,-9.586329E-3,1.5530178E-2,-3.7464258E-1,1.752175E-1,-7.976702E-1,-9.8430276E-2,4.058082E-1,-1.0727217E0,3.1201628E-1,-3.7686753E-1,5.650304E-1,-6.559104E-1,4.6714325E-2,7.6786447E-1,-1.576902E-1],"categories":[],"categories_nodes":[],"categories_segments":[],"categories_sizes":[],"default_left":[1,1,1,1,1,1,1,1,1,1,1,1,1,1,1,1,1,1,1,1,1,1,1,1,1,1,1,1,1,1,1,1,1,1,1,1,1,1,1,0,1,0,0,0,1,1,1,1,1,0,0,1,1,1,0,0,1,1,1,1,1,1,1,0,0,0,0,0,0,0,0,0,0,0,0,0,0,0,0,0,0,0,0,0,0,0,0,0,0,0,0,0,0,0,0,0,0,0,0,0,0,0,0,0,0,0,0,0,0,0,0],"id":8,"left_children":[1,3,5,7,9,11,13,15,17,19,21,23,25,27,29,31,33,35,37,39,41,43,45,47,49,51,53,55,57,59,61,63,65,67,69,71,73,75,77,-1,79,-1,-1,-1,81,83,85,87,89,-1,-1,91,93,95,-1,-1,97,99,101,103,105,107,109,-1,-1,-1,-1,-1,-1,-1,-1,-1,-1,-1,-1,-1,-1,-1,-1,-1,-1,-1,-1,-1,-1,-1,-1,-1,-1,-1,-1,-1,-1,-1,-1,-1,-1,-1,-1,-1,-1,-1,-1,-1,-1,-1,-1,-1,-1,-1,-1],"loss_changes":[4.9693994E3,1.0324248E3,5.4143896E2,5.045818E2,4.1790375E2,3.4087222E2,2.667898E2,2.0253296E2,4.3639023E2,1.0811218E1,4.3577293E1,6.0381897E1,6.609546E1,6.567227E1,3.292334E1,1.0343506E2,8.667107E0,3.3959363E2,3.0142682E2,9.094849E0,2.047638E0,3.9228315E0,2.7317093E1,2.933995E1,6.700617E0,1.2709871E1,1.183728E1,1.8089783E1,7.4830275E0,2.4755615E1,1.845334E1,6.787256E1,3.1108223E1,1.2395401E0,2.4607203E0,6.89238E1,2.0690857E2,1.3711261E2,4.934674E1,0E0,7.115906E0,0E0,0E0,0E0,2.8248557E-1,8.510914E0,1.2603668E1,6.257702E0,1.4190826E1,0E0,0E0,1.1209466E0,8.800926E-1,3.7200928E0,0E0,0E0,2.6779974E-1,5.126219E0,9.901564E-1,2.41521E1,6.620862E0,1.2279215E0,3.5589113E0,0E0,0E0,0E0,0E0,0E0,0E0,0E0,0E0,0E0,0E0,0E0,0E0,0E0,0E0,0E0,0E0,0E0,0E0,0E0,0E0,0E0,0E0,0E0,0E0,0E0,0E0,0E0,0E0,0E0,0E0,0E0,0E0,0E0,0E0,0E0,0E0,0E0,0E0,0E0,0E0,0E0,0E0,0E0,0E0,0E0,0E0,0E0,0E0],"parents":[2147483647,0,0,1,1,2,2,3,3,4,4,5,5,6,6,7,7,8,8,9,9,10,10,11,11,12,12,13,13,14,14,15,15,16,16,17,17,18,18,19,19,20,20,21,21,22,22,23,23,24,24,25,25,26,26,27,27,28,28,29,29,30,30,31,31,32,32,33,33,34,34,35,35,36,36,37,37,38,38,40,40,44,44,45,45,46,46,47,47,48,48,51,51,52,52,53,53,56,56,57,57,58,58,59,59,60,60,61,61,62,62],"right_children":[2,4,6,8,10,12,14,16,18,20,22,24,26,28,30,32,34,36,38,40,42,44,46,48,50,52,54,56,58,60,62,64,66,68,70,72,74,76,78,-1,80,-1,-1,-1,82,84,86,88,90,-1,-1,92,94,96,-1,-1,98,100,102,104,106,108,110,-1,-1,-1,-1,-1,-1,-1,-1,-1,-1,-1,-1,-1,-1,-1,-1,-1,-1,-1,-1,-1,-1,-1,-1,-1,-1,-1,-1,-1,-1,-1,-1,-1,-1,-1,-1,-1,-1,-1,-1,-1,-1,-1,-1,-1,-1,-1,-1],"split_conditions":[1.7065264E-2,1.0134156E0,-1.7521274E0,5.251996E0,2.2227783E0,1.0809585E0,-4.146837E-1,4.9798155E0,3.0108094E0,1.0975084E0,1.4346257E-1,1.225E2,1.8017143E-1,-2.3962803E0,2.564456E0,1.3382596E-1,-1.2142046E1,-2.7755418E0,3.595347E-2,-1.8819647E0,-5.3852806E0,9.275358E-1,-1.3864462E0,-1.5266241E0,-7.76656E0,-1.6404465E-1,3.6330833E0,-2.1952584E0,2.9619899E-2,2.8244834E0,1.6858395E-2,1.965E2,-5.034361E-1,2.2993585E-1,2.629584E-1,1.7253113E0,1.675E2,3.3982095E-1,-8.340825E-2,3.8458914E-2,-2.895929E0,-4.455516E-2,7.226687E-2,-1.3490519E-1,4.227337E-1,3.0963993E0,3.800889E0,9.284991E0,-1.8935869E0,-1.8458526E-1,4.0439736E-2,-5.615484E0,8.030155E-1,1.9991834E-1,5.490885E-2,2.1871066E-1,5.2604485E-1,-3.0639833E-1,-8.704428E-1,9.718454E-1,-2.7752407E0,4.8811235E-2,6.9450474E0,2.1119153E-1,1.4673905E-1,1.0236994E-1,-1.6522561E-1,-3.0165706E-3,-2.309287E-1,-5.9523474E-2,6.891495E-2,-2.598576E-1,5.1089913E-2,1.6630377E-1,-9.788558E-2,-2.0775974E-1,4.8564043E-2,-9.891336E-2,1.511229E-1,1.4485687E-2,-2.3016427E-1,4.927098E-2,-8.983295E-3,6.602539E-2,-1.3877687E-1,2.1474956E-1,-3.1555075E-2,-1.3629618E-1,6.1010957E-2,-5.5061486E-2,2.1791442E-1,-1.0907241E-1,1.3746865E-2,1.6161555E-1,-2.854073E-3,-2.2671084E-1,-1.9172657E-3,3.1060358E-3,-7.4928515E-2,3.50435E-2,-1.5953404E-1,-1.9686056E-2,8.116164E-2,-2.1454434E-1,6.2403258E-2,-7.537351E-2,1.1300608E-1,-1.3118207E-1,9.342865E-3,1.535729E-1,-3.153804E-2],"split_indices":[228,420,802,765,422,93,454,368,595,655,437,850,74,318,526,438,144,767,443,524,765,456,231,663,351,730,111,23,200,801,780,831,299,78,780,526,850,773,612,0,658,0,0,0,780,74,243,282,712,0,0,782,320,78,0,0,45,251,592,453,575,687,437,0,0,0,0,0,0,0,0,0,0,0,0,0,0,0,0,0,0,0,0,0,0,0,0,0,0,0,0,0,0,0,0,0,0,0,0,0,0,0,0,0,0,0,0,0,0,0,0],"split_type":[0,0,0,0,0,0,0,0,0,0,0,0,0,0,0,0,0,0,0,0,0,0,0,0,0,0,0,0,0,0,0,0,0,0,0,0,0,0,0,0,0,0,0,0,0,0,0,0,0,0,0,0,0,0,0,0,0,0,0,0,0,0,0,0,0,0,0,0,0,0,0,0,0,0,0,0,0,0,0,0,0,0,0,0,0,0,0,0,0,0,0,0,0,0,0,0,0,0,0,0,0,0,0,0,0,0,0,0,0,0,0],"sum_hessian":[1.0596008E4,6.547065E3,4.0489429E3,5.8947344E3,6.523304E2,4.5657535E2,3.5923674E3,3.5053933E3,2.389341E3,4.873942E2,1.6493619E2,2.6667633E2,1.89899E2,1.1114829E2,3.4812192E3,3.458743E3,4.6650524E1,1.6634998E3,7.258414E2,4.8230713E2,5.0870695E0,1.8325388E1,1.466108E2,2.510814E2,1.5594926E1,2.5362106E1,1.645369E2,7.626302E1,3.488527E1,3.4532778E3,2.7941471E1,3.402676E3,5.606691E1,4.19171E1,4.7334256E0,1.3223106E2,1.5312687E3,4.9177835E2,2.34063E2,2.4752371E0,4.7983188E2,2.3316107E0,2.755459E0,1.6202007E1,2.123381E0,1.4542619E1,1.3206818E2,1.0256283E1,2.4082513E2,1.2720379E1,2.8745472E0,4.3939743E0,2.0968132E1,1.6183102E2,2.705877E0,7.086126E1,5.4017677E0,3.135993E1,3.5253382E0,3.4414531E3,1.1824602E1,1.4281556E1,1.3659915E1,2.3267773E3,1.0758984E3,1.9247395E1,3.6819515E1,1.2448261E0,4.067227E1,1.0015513E0,3.7318747E0,9.735867E1,3.4872387E1,1.4083192E3,1.22949486E2,3.9053256E2,1.0124579E2,2.9930775E1,2.0413222E2,3.6429656E0,4.7618893E2,1.0951321E0,1.0282488E0,6.811379E0,7.73124E0,1.2574958E2,6.3185925E0,7.1707344E0,3.0855482E0,4.141513E0,2.3668361E2,3.145248E0,1.2487264E0,1.9966145E1,1.001987E0,1.5865955E2,3.171471E0,1.1306221E0,4.2711453E0,2.6083431E0,2.8751587E1,1.0277493E0,2.4975889E0,3.432822E3,8.631141E0,3.9806483E0,7.8439536E0,1.2908799E1,1.372757E0,1.219952E1,1.4603944E0],"tree_param":{"num_deleted":"0","num_feature":"893","num_nodes":"111","size_leaf_vector":"0"}},{"base_weights":[-7.042927E-3,-9.5132965E-1,4.337115E-1,-1.8268329E-1,-1.0234731E0,-3.709318E-1,5.95475E-1,-9.332494E-1,5.9722686E-1,-1.0438561E0,-1.846841E-2,7.140573E-1,-7.446486E-1,8.053005E-1,1.5267225E-1,3.5230103E-1,-1.0100361E0,-4.6183777E-1,8.98833E-1,2.8697082E-1,-1.0464709E0,-5.841084E-1,6.96347E-1,-7.19988E-1,9.29031E-1,-9.7877645E-1,-6.3522905E-2,-2.0016987E-2,8.673801E-1,5.8175945E-1,-2.38684E-1,3.7102383E-1,7.815255E-3,-1.030594E0,1.0809289E-1,-8.0247986E-1,4.3761927E-1,-2.7400133E-1,1.0087396E0,5.124638E-1,-1.7635706E-1,-1.5885091E-1,-1.0521553E0,-6.8153167E-1,2.317414E-1,9.5830065E-1,-3.4254667E-1,1.0122406E-1,-8.5309106E-1,-4.2506924E-1,1.010695E0,3.0136168E-1,-1.0718172E0,6.387388E-1,-9.1264796E-1,8.1941193E-1,-7.970591E-1,9.9731463E-1,6.583379E-1,-1.9931346E-1,8.264019E-1,-7.1266896E-1,1.7907755E-1,-9.6695065E-1,2.2962846E-1,2.0771356E-1,-4.5812848E-1,-1.1140582E-2,1.0472895E0,-6.1360896E-1,5.798593E-1,-1.0573565E0,-1.4580609E-1,-7.4604917E-1,7.838004E-2,-9.420823E-2,1.1444504E0,-1.8884927E-1,3.0296704E-1,-8.663111E-1,-3.586244E-2,-6.472175E-1,2.75368E-1,1.0649639E0,-1.5737775E-1,9.6785015E-1,-6.243237E-1,2.7540237E-1,-1.1284174E0,1.0039622E0,-6.8873864E-1,3.8781172E-1,-1.0217872E0,-6.808301E-1,9.93699E-1,2.3603557E-1,-1.1199865E0,1.0108931E0,-2.3173235E-1,9.190261E-1,3.352126E-1,-5.635715E-1,6.1646664E-1,-3.047811E-1,9.921714E-1,-9.8693144E-1,3.0037305E-1,3.8801137E-1,-8.87574E-1],"categories":[],"categories_nodes":[],"categories_segments":[],"categories_sizes":[],"default_left":[1,1,1,1,1,1,1,1,1,1,1,1,1,1,1,1,1,1,1,1,1,1,1,1,1,1,1,1,1,1,1,1,1,0,0,1,0,1,1,0,0,1,1,1,0,1,0,1,1,1,1,1,1,1,1,1,1,1,1,1,1,1,1,0,0,0,0,0,0,0,0,0,0,0,0,0,0,0,0,1,1,0,0,0,0,0,0,0,0,0,0,0,0,0,0,0,0,0,0,0,0,0,0,0,0,0,0,0,0],"id":9,"left_children":[1,3,5,7,9,11,13,15,17,19,21,23,25,27,29,-1,33,35,37,39,41,43,45,47,49,51,53,55,57,59,61,-1,-1,-1,-1,63,-1,65,67,-1,-1,69,71,73,-1,75,-1,77,-1,81,83,85,87,89,91,93,95,97,99,101,103,105,107,-1,-1,-1,-1,-1,-1,-1,-1,-1,-1,-1,-1,-1,-1,-1,-1,-1,-1,-1,-1,-1,-1,-1,-1,-1,-1,-1,-1,-1,-1,-1,-1,-1,-1,-1,-1,-1,-1,-1,-1,-1,-1,-1,-1,-1,-1],"loss_changes":[3.8616494E3,1.6185986E2,8.255978E2,1.6100104E2,5.5056396E1,4.3716388E2,4.884923E2,1.729992E1,4.7691795E1,1.2201172E1,2.9860844E1,9.237981E1,1.2648688E2,1.8328296E2,2.8803183E2,6.942809E-2,4.192917E0,1.4793369E1,1.6877571E1,2.2652206E0,1.1650391E1,4.84223E0,1.2193195E1,5.4402065E0,3.1509338E1,7.379712E1,1.3379054E2,1.7598666E2,8.372266E1,1.5778922E2,1.7945245E2,0E0,0E0,0E0,0E0,7.3528805E0,0E0,2.4811914E0,4.1365967E0,0E0,0E0,1.3158668E1,1.0817383E1,2.5070896E0,0E0,6.7173023E0,0E0,1.4370316E0,9.0042114E-2,5.0555696E0,1.6576233E1,3.5625145E1,4.5391968E1,6.671034E1,1.8333786E1,4.070822E1,4.9342537E1,3.6228638E1,1.067276E2,6.3782375E1,1.2006891E2,1.2064418E2,1.11813644E2,0E0,0E0,0E0,0E0,0E0,0E0,0E0,0E0,0E0,0E0,0E0,0E0,0E0,0E0,0E0,0E0,0E0,0E0,0E0,0E0,0E0,0E0,0E0,0E0,0E0,0E0,0E0,0E0,0E0,0E0,0E0,0E0,0E0,0E0,0E0,0E0,0E0,0E0,0E0,0E0,0E0,0E0,0E0,0E0,0E0,0E0],"parents":[2147483647,0,0,1,1,2,2,3,3,4,4,5,5,6,6,7,7,8,8,9,9,10,10,11,11,12,12,13,13,14,14,15,15,16,16,17,17,18,18,19,19,20,20,21,21,22,22,23,23,24,24,25,25,26,26,27,27,28,28,29,29,30,30,35,35,37,37,38,38,41,41,42,42,43,43,45,45,47,47,48,48,49,49,50,50,51,51,52,52,53,53,54,54,55,55,56,56,57,57,58,58,59,59,60,60,61,61,62,62],"right_children":[2,4,6,8,10,12,14,16,18,20,22,24,26,28,30,-1,34,36,38,40,42,44,46,48,50,52,54,56,58,60,62,-1,-1,-1,-1,64,-1,66,68,-1,-1,70,72,74,-1,76,-1,78,-1,82,84,86,88,90,92,94,96,98,100,102,104,106,108,-1,-1,-1,-1,-1,-1,-1,-1,-1,-1,-1,-1,-1,-1,-1,-1,-1,-1,-1,-1,-1,-1,-1,-1,-1,-1,-1,-1,-1,-1,-1,-1,-1,-1,-1,-1,-1,-1,-1,-1,-1,-1,-1,-1,-1,-1],"split_conditions":[-7.507481E-2,-1.7462484E0,6.990193E-1,-1.6860166E0,6.1027366E-1,-1.0396898E0,3.7673533E0,1.1141512E0,-2.0628119E0,-7.046226E-1,3.2913709E0,-1.18886795E1,9.511224E-1,-1.0429335E1,1.6966808E0,7.046021E-2,2.7739663E0,4.974289E0,6.3005336E-2,1.0176901E0,-3.954221E-1,6.5807676E-1,3.355E2,-4.005032E0,9.066943E-1,5.560992E-2,9.517904E-1,-2.5964326E-1,1.975E2,-5.176626E0,1.2515049E0,7.4204765E-2,1.563051E-3,-2.061188E-1,2.1618579E-2,1.7778885E0,8.7523855E-2,-3.1272128E-1,-6.808915E0,1.02492765E-1,-3.5271414E-2,8.4456325E-1,2.5971994E0,2.113437E0,4.634828E-2,-7.90347E-2,-6.850933E-2,2.5692875E0,-1.7061822E-1,1.2955858E0,5.759945E0,-9.493266E-2,-5.035299E-1,4.9423046E0,-1.4340994E0,-7.806084E-1,2.305E2,7.4923673E0,1.8777693E1,7.925203E-1,8.285732E-1,1.0061029E0,-8.831936E-1,-1.9339013E-1,4.592569E-2,4.1542713E-2,-9.16257E-2,-2.2281164E-3,2.094579E-1,-1.2272179E-1,1.1597186E-1,-2.114713E-1,-2.9161219E-2,-1.4920984E-1,1.5676009E-2,-1.8841647E-2,2.2889009E-1,-3.7769854E-2,6.0593408E-2,-1.7326222E-1,-7.1724877E-3,-1.2944351E-1,5.50736E-2,2.1299279E-1,-3.147555E-2,1.9357003E-1,-1.2486475E-1,5.5080473E-2,-2.2568348E-1,2.0079243E-1,-1.3774773E-1,7.756235E-2,-2.0435743E-1,-1.3616602E-1,1.9873981E-1,4.7207113E-2,-2.2399731E-1,2.0217863E-1,-4.634647E-2,1.8380521E-1,6.704252E-2,-1.12714306E-1,1.2329333E-1,-6.095622E-2,1.9843428E-1,-1.973863E-1,6.007461E-2,7.7602275E-2,-1.775148E-1],"split_indices":[711,802,457,630,453,525,351,627,180,117,836,558,436,558,626,679,594,419,436,663,454,447,831,559,506,838,388,696,831,249,424,2147483647,2147483647,0,0,803,0,435,644,0,0,506,250,766,0,439,0,91,294,455,285,594,435,144,593,712,831,695,860,632,663,354,249,0,0,0,0,0,0,0,0,0,0,0,0,0,0,0,0,2147483647,2147483647,0,0,0,0,0,0,0,0,0,0,0,0,0,0,0,0,0,0,0,0,0,0,0,0,0,0,0,0],"split_type":[0,0,0,0,0,0,0,0,0,0,0,0,0,0,0,0,0,0,0,0,0,0,0,0,0,0,0,0,0,0,0,0,0,0,0,0,0,0,0,0,0,0,0,0,0,0,0,0,0,0,0,0,0,0,0,0,0,0,0,0,0,0,0,0,0,0,0,0,0,0,0,0,0,0,0,0,0,0,0,0,0,0,0,0,0,0,0,0,0,0,0,0,0,0,0,0,0,0,0,0,0,0,0,0,0,0,0,0,0],"sum_hessian":[9.258469E3,2.9425881E3,6.315881E3,2.5551808E2,2.68707E3,1.0550293E3,5.2608516E3,1.2920668E2,1.2631141E2,2.6332769E3,5.3793278E1,2.6796268E2,7.870666E2,3.5638894E3,1.6969623E3,5.260236E0,1.2394644E2,2.6820576E1,9.949083E1,3.0311177E0,2.6302456E3,3.1050932E1,2.2742346E1,3.1870337E1,2.3609235E2,5.8247766E2,2.0458893E2,2.497928E2,3.3140967E3,8.071401E2,8.8982227E2,4.258423E0,1.001813E0,1.22477455E2,1.4689883E0,2.023526E1,6.585317E0,7.245234E0,9.22456E1,1.325515E0,1.7056026E0,1.8578787E1,2.6116667E3,2.9209314E1,1.8416175E0,1.8782228E1,3.960119E0,4.7791634E0,2.7091173E1,1.103676E1,2.2505559E2,3.7949123E1,5.445285E2,1.1333437E2,9.125456E1,1.1981398E2,1.2997882E2,2.0205022E3,1.2935945E3,1.9295218E2,6.1418787E2,4.13553E2,4.7626926E2,1.799844E1,2.2368197E0,1.64931E0,5.595924E0,3.618709E0,8.862689E1,1.2547759E1,6.0310283E0,2.5951082E3,1.6558607E1,2.7091623E1,2.117691E0,3.5649238E0,1.5217304E1,2.2225776E0,2.556586E0,2.6068869E1,1.0223036E0,8.956086E0,2.080674E0,2.1590721E2,9.148377E0,2.1798689E1,1.6150434E1,2.0396036E1,5.241325E2,9.0792175E1,2.25422E1,5.0884857E0,8.616608E1,9.445399E0,1.10368576E2,3.1594353E1,9.838447E1,2.0001793E3,2.0322865E1,7.057631E2,5.878313E2,1.3552835E2,5.742382E1,7.743036E1,5.367575E2,3.2564764E2,8.790536E1,4.0357922E2,7.269003E1],"tree_param":{"num_deleted":"4","num_feature":"893","num_nodes":"109","size_leaf_vector":"0"}},{"base_weights":[-7.1266997E-3,-8.66053E-1,4.2157546E-1,5.64333E-2,-1.0110399E0,-7.0918345E-1,5.0250167E-1,-8.144674E-1,8.026448E-1,-1.0277185E0,-1.4409026E-2,8.006117E-1,-8.381735E-1,7.520016E-1,1.19658135E-1,4.3672815E-1,-9.621471E-1,9.864818E-1,-4.4139776E-1,-1.0371239E0,3.606572E-1,-5.3862053E-1,5.2385795E-1,-9.426202E-2,8.5727066E-1,3.6798456E-1,-9.8103255E-1,7.835449E-1,-5.2913934E-1,-6.2866414E-1,3.1176448E-1,-2.9388353E-1,7.037029E-1,-1.0241547E0,1.6638859E-1,-3.2452324E-1,1.0560421E0,3.7726405E-1,-6.660264E-1,-3.7451145E-1,-1.0527302E0,6.7069423E-1,-3.053702E-1,-6.89165E-1,2.210062E-1,7.201658E-1,-2.5219682E-1,8.133596E-1,-5.1067954E-1,-9.952241E-1,1.671271E-1,1.931601E-1,8.443475E-1,-8.7961245E-1,4.145455E-1,-8.7654695E-2,-9.5774037E-1,3.82169E-2,7.627445E-1,5.246602E-2,-3.61099E-1,7.8350246E-1,-8.235609E-2,-5.971431E-2,-1.0680745E0,-2.0586735E-1,3.8635448E-1,2.9482892E-1,-8.049795E-1,-1.2273926E-1,1.0847301E0,-7.842871E-1,1.6257815E-1,1.3766975E0,-8.6348325E-1,-1.7988573E-1,-1.0560045E0,9.590098E-1,-2.1509327E-1,6.326566E-2,-7.5745577E-1,-5.783301E-1,7.365411E-2,-1.005769E0,1.2889178E-1,2.2752067E-1,-4.694688E-2,-5.1396555E-1,7.4795234E-1,9.8029673E-1,5.897707E-1,-1.0021286E0,2.7211636E-1,6.2193936E-1,-3.0683348E-1,-7.2386265E-1,7.803043E-1,-1.064845E0,-1.0080466E-1,-4.5412457E-1,4.4035146E-1,9.589303E-1,2.6152098E-1],"categories":[],"categories_nodes":[],"categories_segments":[],"categories_sizes":[],"default_left":[1,1,1,1,1,1,1,1,1,1,1,1,1,1,1,1,1,1,1,1,1,1,1,0,0,1,1,1,1,1,1,1,1,1,1,1,1,0,1,1,1,1,0,1,0,0,0,0,1,1,1,1,1,1,1,1,1,1,1,0,0,0,0,0,0,0,0,0,0,0,0,0,0,0,0,0,0,0,0,0,0,0,0,0,0,0,0,0,0,0,0,0,0,0,0,0,0,0,0,0,0,0,0],"id":10,"left_children":[1,3,5,7,9,11,13,15,17,19,21,23,25,27,29,31,33,35,37,39,41,43,45,-1,-1,47,49,51,53,55,57,59,61,63,65,67,69,-1,71,73,75,77,-1,79,-1,-1,-1,-1,81,83,85,87,89,91,93,95,97,99,101,-1,-1,-1,-1,-1,-1,-1,-1,-1,-1,-1,-1,-1,-1,-1,-1,-1,-1,-1,-1,-1,-1,-1,-1,-1,-1,-1,-1,-1,-1,-1,-1,-1,-1,-1,-1,-1,-1,-1,-1,-1,-1,-1,-1],"loss_changes":[3.0010388E3,3.63489E2,5.010642E2,2.5220209E2,3.8838623E1,7.8232574E1,4.842848E2,3.7350586E1,5.2065765E1,3.386206E1,1.6576363E1,2.5330582E0,6.2752563E1,1.283457E2,2.9178268E2,7.1038346E0,1.3151123E1,2.0284378E1,8.722458E0,1.9776367E1,6.7852726E0,4.9111137E0,6.2526274E0,0E0,0E0,2.1223694E1,6.70813E0,1.0618762E2,3.004615E1,7.307016E1,1.9843744E2,5.145198E-1,2.016097E0,5.989517E0,2.197413E0,7.421061E0,7.3470306E0,0E0,4.225955E0,7.0374146E1,4.489502E0,6.8596E0,0E0,1.8745108E0,0E0,0E0,0E0,0E0,1.2488198E0,4.938629E0,2.663842E-1,1.1895284E2,8.836133E1,1.1391941E1,6.1592193E0,9.842938E1,2.2526016E1,2.0260715E2,5.7246735E1,0E0,0E0,0E0,0E0,0E0,0E0,0E0,0E0,0E0,0E0,0E0,0E0,0E0,0E0,0E0,0E0,0E0,0E0,0E0,0E0,0E0,0E0,0E0,0E0,0E0,0E0,0E0,0E0,0E0,0E0,0E0,0E0,0E0,0E0,0E0,0E0,0E0,0E0,0E0,0E0,0E0,0E0,0E0,0E0],"parents":[2147483647,0,0,1,1,2,2,3,3,4,4,5,5,6,6,7,7,8,8,9,9,10,10,11,11,12,12,13,13,14,14,15,15,16,16,17,17,18,18,19,19,20,20,21,21,22,22,25,25,26,26,27,27,28,28,29,29,30,30,31,31,32,32,33,33,34,34,35,35,36,36,38,38,39,39,40,40,41,41,43,43,48,48,49,49,50,50,51,51,52,52,53,53,54,54,55,55,56,56,57,57,58,58],"right_children":[2,4,6,8,10,12,14,16,18,20,22,24,26,28,30,32,34,36,38,40,42,44,46,-1,-1,48,50,52,54,56,58,60,62,64,66,68,70,-1,72,74,76,78,-1,80,-1,-1,-1,-1,82,84,86,88,90,92,94,96,98,100,102,-1,-1,-1,-1,-1,-1,-1,-1,-1,-1,-1,-1,-1,-1,-1,-1,-1,-1,-1,-1,-1,-1,-1,-1,-1,-1,-1,-1,-1,-1,-1,-1,-1,-1,-1,-1,-1,-1,-1,-1,-1,-1,-1,-1],"split_conditions":[-1.325384E-2,-1.5130861E0,3.597803E-1,5.687114E-2,1.7424176E0,-1.0267923E0,5.8507395E0,-5.8839476E-1,7.74543E0,1.199954E0,-3.2545653E-1,3.2326102E0,-4.14054E0,5.045486E0,-1.0170567E1,-4.4422594E-1,3.3853326E0,-4.6789255E0,-1.3470087E0,-2.242096E0,5.093181E-2,6.8923634E-1,2.165E2,-1.8852403E-2,1.7145413E-1,-1.7805007E-1,1.2545102E0,-4.370396E0,3.7617834E0,3.95E1,2.4854932E0,1.9000344E-2,1.7549357E0,1.990783E0,9.5009327E-1,1.5506468E0,6.385688E-4,7.545281E-2,1.2803385E0,-1.4423912E0,-6.1048543E-1,1.2350362E1,-6.1074045E-2,-1.1727352E0,4.420124E-2,1.4403316E-1,-5.0439365E-2,1.6267192E-1,-1.0529633E0,1.0909918E1,8.4198284E-1,5.156596E0,1.965E2,4.3335915E0,1.5442345E0,2.6229882E0,1.7108841E0,-5.611577E-1,-9.516003E-1,1.0493204E-2,-7.2219804E-2,1.5670049E-1,-1.6471218E-2,-1.19428625E-2,-2.136149E-1,-4.117347E-2,7.7270895E-2,5.8965784E-2,-1.609959E-1,-2.4547853E-2,2.1694604E-1,-1.5685742E-1,3.251563E-2,2.753395E-1,-1.7269665E-1,-3.5977148E-2,-2.1120091E-1,1.9180197E-1,-4.3018654E-2,1.2653132E-2,-1.5149115E-1,-1.15666024E-1,1.4730821E-2,-2.011538E-1,2.5778357E-2,4.5504134E-2,-9.389376E-3,-1.0279311E-1,1.4959048E-1,1.9605935E-1,1.17954135E-1,-2.0042573E-1,5.4423273E-2,1.24387875E-1,-6.1366696E-2,-1.4477253E-1,1.5606086E-1,-2.1296899E-1,-2.0160932E-2,-9.082492E-2,8.8070296E-2,1.9178607E-1,5.2304197E-2],"split_indices":[780,802,437,573,42,524,765,22,351,522,159,574,782,769,558,505,146,43,695,22,420,801,831,0,0,22,455,161,773,843,563,47,162,696,250,771,436,0,148,23,523,562,0,665,0,0,0,0,733,781,294,437,831,574,93,836,524,354,623,0,0,0,0,0,0,0,0,0,0,0,0,0,0,0,0,0,0,0,0,0,0,0,0,0,0,0,0,0,0,0,0,0,0,0,0,0,0,0,0,0,0,0,0],"split_type":[0,0,0,0,0,0,0,0,0,0,0,0,0,0,0,0,0,0,0,0,0,0,0,0,0,0,0,0,0,0,0,0,0,0,0,0,0,0,0,0,0,0,0,0,0,0,0,0,0,0,0,0,0,0,0,0,0,0,0,0,0,0,0,0,0,0,0,0,0,0,0,0,0,0,0,0,0,0,0,0,0,0,0,0,0,0,0,0,0,0,0,0,0,0,0,0,0,0,0,0,0,0,0],"sum_hessian":[8.13013E3,2.7034434E3,5.4266865E3,3.680179E2,2.3354255E3,3.5725336E2,5.069433E3,1.6939867E2,1.9861925E2,2.2966785E3,3.874708E1,2.4021397E1,3.3323196E2,3.0633796E3,2.0060535E3,1.5817187E1,1.5358148E2,1.7485117E2,2.3768085E1,2.2837373E3,1.2941064E1,1.9626505E1,1.9120575E1,1.0351698E0,2.2986227E1,3.3619984E1,2.9961197E2,2.9935583E3,6.982119E1,4.051451E2,1.6009084E3,3.9632678E0,1.185392E1,1.4645918E2,7.1222944E0,6.96314E0,1.6788803E2,3.6544378E0,2.0113647E1,5.8302177E1,2.2254353E3,8.782652E0,4.1584115E0,1.7154392E1,2.4721117E0,1.5835145E1,3.2854302E0,2.2804249E1,1.0815736E1,2.9726965E2,2.3423378E0,2.8341406E2,2.7101443E3,5.1407887E1,1.8413305E1,1.5801999E2,2.471251E2,1.00323254E3,5.9767584E2,1.0007799E0,2.962488E0,1.079096E1,1.0629593E0,7.406871E0,1.390523E2,2.8834586E0,4.2388363E0,4.7296944E0,2.2334456E0,3.2099102E0,1.6467812E2,1.8069557E1,2.04409E0,8.76307E0,4.953911E1,1.0407898E1,2.2150273E3,6.002318E0,2.7803345E0,1.4886136E0,1.5665779E1,9.785566E0,1.0301696E0,2.9555002E2,1.7196276E0,1.3370125E0,1.0053252E0,1.24924286E2,1.5848978E2,1.7481107E3,9.6203357E2,4.763915E1,3.7687385E0,1.5372293E1,3.041012E0,9.214126E1,6.587873E1,2.1751292E2,2.9612185E1,4.504476E2,5.527849E2,4.229828E2,1.7469305E2],"tree_param":{"num_deleted":"0","num_feature":"893","num_nodes":"103","size_leaf_vector":"0"}},{"base_weights":[-7.4362233E-3,-8.9626765E-1,3.5816646E-1,-1.8019077E-1,-9.741878E-1,4.601096E-1,-6.054272E-1,-8.624338E-1,4.9864158E-1,-9.9882525E-1,3.387993E-2,7.130172E-1,9.2888944E-2,-1.0190362E0,5.564764E-1,3.1454447E-1,-9.517923E-1,8.0948657E-1,-4.1473174E-1,-1.3650623E-1,-1.007457E0,4.902561E-1,-6.1921215E-1,-6.799627E-1,7.4564004E-1,-7.01521E-1,2.5091496E-1,-1.1032678E0,-3.90786E-1,-3.2681018E-1,8.8742864E-1,-9.578272E-2,4.107651E-1,-9.7023785E-1,8.8018194E-2,-2.990819E-1,9.634522E-1,-8.07963E-1,2.7783638E-1,-5.816151E-1,5.203207E-1,-1.0113746E0,2.5279105E-1,9.0110046E-1,-4.4996458E-1,4.4809945E-2,-6.6512775E-1,2.3900144E-1,-1.0436673E0,-1.3980053E-1,7.866606E-1,3.278145E-2,-9.903438E-1,5.387691E-1,-2.9445192E-1,-2.0360926E-2,-1.1157821E0,-7.2285116E-1,5.50103E-1,4.4143245E-1,-7.3321706E-1,-1.1595376E-1,9.9959E-1,-3.929167E-2,-9.7607356E-1,2.1016197E-1,-4.7614202E-1,9.8959243E-1,-1.0237338E-1,-9.1707176E-1,1.3285683E-1,-2.8762498E-1,5.082729E-1,-1.5248062E-1,6.9310004E-1,-1.0180999E0,-4.8873723E-2,5.14321E-1,-2.0914288E-1,1.0872854E0,-1.8480256E-1,-1.8336719E-3,-4.7504312E-1,5.412068E-1,-4.772628E-1,-1.0903E0,1.0741419E-1,-6.4214903E-1,4.5019573E-1,8.1207114E-1,-2.3348132E-1,-5.909909E-1,8.722649E-1,5.173318E-1,-1.1325107E0,7.1078265E-1,-3.8021845E-1,-8.3690566E-1,4.1761327E-1,-2.1372302E-1,2.0821933E-1,6.761906E-2,-1.1252292E0,1.2912837E-1,-8.3999246E-1,6.6321963E-1,-1.0891639E-1,-1.6509362E-1,6.249446E-1,2.1989839E-1,-8.5599405E-1,3.071916E-1,-5.103011E-1,-7.521196E-2,1.0260334E0],"categories":[],"categories_nodes":[],"categories_segments":[],"categories_sizes":[],"default_left":[1,1,1,1,1,1,1,1,1,1,1,1,1,1,1,1,1,1,1,1,1,1,1,1,1,1,1,1,1,1,1,0,0,1,0,1,1,1,1,0,1,1,1,1,1,0,0,1,1,1,1,1,1,1,1,1,1,1,1,1,1,1,1,0,0,0,0,0,0,0,0,0,0,0,0,0,0,0,0,0,0,0,0,0,0,0,0,0,0,0,0,0,0,0,0,0,0,0,0,0,0,0,0,0,0,0,0,0,0,0,0,0,0,0,0],"id":11,"left_children":[1,3,5,7,9,11,13,15,17,19,21,23,25,27,29,31,33,35,37,39,41,43,45,47,49,51,53,55,57,59,61,-1,-1,63,-1,65,67,69,71,-1,73,75,77,79,81,-1,-1,83,85,87,89,91,93,95,97,99,101,103,105,107,109,111,113,-1,-1,-1,-1,-1,-1,-1,-1,-1,-1,-1,-1,-1,-1,-1,-1,-1,-1,-1,-1,-1,-1,-1,-1,-1,-1,-1,-1,-1,-1,-1,-1,-1,-1,-1,-1,-1,-1,-1,-1,-1,-1,-1,-1,-1,-1,-1,-1,-1,-1,-1,-1],"loss_changes":[2.3410205E3,1.1539465E2,5.042179E2,1.0540854E2,4.7310303E1,4.285866E2,2.4244415E2,1.4830803E1,3.6225655E1,1.2368652E1,1.9366879E1,1.2937659E2,2.3983585E2,1.5103241E1,4.2601074E1,1.0037538E0,2.9079437E0,1.8201946E1,1.2050992E1,1.1758198E1,1.1574951E1,1.8669636E1,1.1199493E0,2.5164284E1,9.835425E1,6.7616425E1,2.5106273E2,4.0826416E0,2.2365898E1,1.7075745E1,1.2580307E1,0E0,0E0,1.9264984E-1,0E0,2.6757295E0,3.2749252E0,3.8386478E0,4.1307173E0,0E0,3.0728374E0,1.1302368E1,2.726038E0,8.005976E0,1.9554496E-1,0E0,0E0,8.507291E0,3.8796082E0,4.054555E1,6.827197E1,5.712624E1,5.4737396E1,1.6768652E2,2.180546E2,1.0557957E0,4.2735596E0,5.85779E0,2.2902389E0,3.4334373E0,5.714432E0,4.765483E0,3.395607E0,0E0,0E0,0E0,0E0,0E0,0E0,0E0,0E0,0E0,0E0,0E0,0E0,0E0,0E0,0E0,0E0,0E0,0E0,0E0,0E0,0E0,0E0,0E0,0E0,0E0,0E0,0E0,0E0,0E0,0E0,0E0,0E0,0E0,0E0,0E0,0E0,0E0,0E0,0E0,0E0,0E0,0E0,0E0,0E0,0E0,0E0,0E0,0E0,0E0,0E0,0E0,0E0],"parents":[2147483647,0,0,1,1,2,2,3,3,4,4,5,5,6,6,7,7,8,8,9,9,10,10,11,11,12,12,13,13,14,14,15,15,16,16,17,17,18,18,19,19,20,20,21,21,22,22,23,23,24,24,25,25,26,26,27,27,28,28,29,29,30,30,33,33,35,35,36,36,37,37,38,38,40,40,41,41,42,42,43,43,44,44,47,47,48,48,49,49,50,50,51,51,52,52,53,53,54,54,55,55,56,56,57,57,58,58,59,59,60,60,61,61,62,62],"right_children":[2,4,6,8,10,12,14,16,18,20,22,24,26,28,30,32,34,36,38,40,42,44,46,48,50,52,54,56,58,60,62,-1,-1,64,-1,66,68,70,72,-1,74,76,78,80,82,-1,-1,84,86,88,90,92,94,96,98,100,102,104,106,108,110,112,114,-1,-1,-1,-1,-1,-1,-1,-1,-1,-1,-1,-1,-1,-1,-1,-1,-1,-1,-1,-1,-1,-1,-1,-1,-1,-1,-1,-1,-1,-1,-1,-1,-1,-1,-1,-1,-1,-1,-1,-1,-1,-1,-1,-1,-1,-1,-1,-1,-1,-1,-1,-1],"split_conditions":[-7.507481E-2,-1.6106899E0,1.0244203E0,-1.6711525E0,6.1027366E-1,5.8507395E0,2.9757032E0,1.1141512E0,2.3082185E0,-3.6547673E-1,1.8572965E0,-1.31876335E1,-2.3198662E0,8.8026667E-1,6.483978E-1,1.0757234E-1,4.0306654E0,6.3005336E-2,-1.21734254E-1,4.9930018E-1,1.7597349E0,3.285E2,-2.1428207E-1,4.5806575E-1,-1.488004E0,-1.9825122E0,2.8890326E0,-8.168519E-1,2.0551047E-1,3.6165424E-2,-1.6951499E0,-1.9156544E-2,8.215302E-2,-1.150584E0,1.760364E-2,-3.1272128E-1,3.0460372E0,5.0180607E0,1.7536288E-1,-1.1632302E-1,-3.1559262E0,2.6068213E0,3.24971E0,3.5514522E-1,-3.0210004E0,8.96199E-3,-1.3302556E-1,6.2008537E-2,2.4378772E0,4.2405205E0,1.290152E-1,-1.694096E-1,-4.2018995E0,3.175E2,1.0142075E0,-2.6164374E-1,-1.6759298E0,-2.3365731E0,4.4001536E0,6.3085146E-2,3.2161698E-2,1.2145348E-1,-7.283378E-1,-7.858334E-3,-1.9521472E-1,4.2032395E-2,-9.5228404E-2,1.9791849E-1,-2.0474676E-2,-1.8341435E-1,2.6571367E-2,-5.7524998E-2,1.0165458E-1,-3.0496124E-2,1.3862E-1,-2.0361999E-1,-9.7747445E-3,1.02864206E-1,-4.1828576E-2,2.1745709E-1,-3.6960512E-2,-3.667344E-4,-9.500863E-2,1.0824136E-1,-9.545256E-2,-2.1806E-1,2.1482838E-2,-1.2842982E-1,9.003915E-2,1.6241424E-1,-4.6696264E-2,-1.1819818E-1,1.7445299E-1,1.03466354E-1,-2.2650214E-1,1.4215653E-1,-7.604369E-2,-1.6738114E-1,8.3522655E-2,-4.2744603E-2,4.164387E-2,1.3523812E-2,-2.2504584E-1,2.5825674E-2,-1.679985E-1,1.3264392E-1,-2.1783277E-2,-3.3018723E-2,1.2498893E-1,4.397968E-2,-1.7119882E-1,6.1438322E-2,-1.0206022E-1,-1.5042392E-2,2.0520668E-1],"split_indices":[711,802,420,630,453,765,422,627,318,454,505,144,767,422,457,436,594,436,276,492,455,831,731,147,300,318,595,683,436,162,438,0,0,527,0,435,386,419,732,0,77,250,77,510,699,0,0,114,457,457,438,770,802,831,421,235,476,249,420,711,22,41,370,0,0,0,0,0,0,0,0,0,0,0,0,0,0,0,0,0,0,0,0,0,0,0,0,0,0,0,0,0,0,0,0,0,0,0,0,0,0,0,0,0,0,0,0,0,0,0,0,0,0,0,0],"split_type":[0,0,0,0,0,0,0,0,0,0,0,0,0,0,0,0,0,0,0,0,0,0,0,0,0,0,0,0,0,0,0,0,0,0,0,0,0,0,0,0,0,0,0,0,0,0,0,0,0,0,0,0,0,0,0,0,0,0,0,0,0,0,0,0,0,0,0,0,0,0,0,0,0,0,0,0,0,0,0,0,0,0,0,0,0,0,0,0,0,0,0,0,0,0,0,0,0,0,0,0,0,0,0,0,0,0,0,0,0,0,0,0,0,0,0],"sum_hessian":[7.184167E3,2.089583E3,5.0945845E3,2.0831534E2,1.8812676E3,4.611895E3,4.8268915E2,1.0254772E2,1.0576762E2,1.8364753E3,4.4792294E1,2.725444E3,1.8864509E3,3.5687872E2,1.2581042E2,5.457987E0,9.708973E1,7.976044E1,2.600718E1,1.9867111E1,1.8166082E3,2.7834822E1,1.695747E1,5.7826958E1,2.6676172E3,3.072893E2,1.5791616E3,3.0802045E2,4.885829E1,3.432493E1,9.148549E1,1.0454105E0,4.412576E0,9.605487E1,1.0348626E0,8.577358E0,7.118308E1,1.5525699E1,1.0481481E1,1.2524661E1,7.342451E0,1.8129473E3,3.6609387E0,1.9660103E1,8.17472E0,1.1123078E0,1.5845162E1,1.7369226E1,4.0457733E1,1.1704687E2,2.5505703E3,8.924869E1,2.1804062E2,1.0336854E3,5.454762E2,3.8190095E0,3.0420142E2,3.782588E1,1.10324135E1,1.1577607E1,2.274732E1,9.164332E0,8.232116E1,1.0801014E0,9.497477E1,1.7305592E0,6.846799E0,7.017718E1,1.0058987E0,1.41384535E1,1.3872452E0,2.3161652E0,8.165316E0,1.7403561E0,5.602095E0,1.799794E3,1.3153352E1,1.6134052E0,2.0475335E0,1.677175E1,2.8883533E0,1.0019503E0,7.1727695E0,1.3934173E1,3.4350538E0,3.9390003E1,1.0677294E0,6.274181E1,5.4305058E1,2.4905728E3,5.9997578E1,5.290102E1,3.6347668E1,1.6514608E1,2.0152602E2,8.72617E2,1.6106844E2,3.0861725E2,2.368589E2,2.4210002E0,1.3980092E0,1.9215364E0,3.0227988E2,4.4484687E0,3.3377407E1,9.361787E0,1.6706269E0,2.922412E0,8.655195E0,1.6931373E0,2.1054184E1,5.486884E0,3.6774485E0,1.533872E0,8.0787285E1],"tree_param":{"num_deleted":"0","num_feature":"893","num_nodes":"115","size_leaf_vector":"0"}},{"base_weights":[-8.975146E-3,3.5876986E-1,-7.870107E-1,4.5631513E-1,-5.7812965E-1,6.63038E-2,-9.160796E-1,7.0628697E-1,1.7330861E-1,-1.0272933E0,4.746082E-1,6.616473E-1,-7.808853E-1,3.1932077E-1,-9.7118205E-1,-5.215813E-1,7.4914175E-1,4.9468577E-1,-1.748253E-1,1.3639186E-1,-1.0503539E0,7.077489E-1,-4.8894933E-1,8.2333237E-1,-6.3233536E-1,4.0247738E-1,-9.6448874E-1,8.245449E-1,-4.038515E-1,-9.829652E-1,6.220692E-2,-9.762981E-1,4.0699485E-1,8.8450354E-1,4.7825822E-1,6.6371673E-1,-5.8430237E-1,1.961935E-1,-7.206848E-1,-2.0296673E-1,3.651803E-1,1.0136875E-1,-1.0658332E0,-2.7522248E-1,8.568826E-1,-6.4397913E-1,2.7192336E-1,-3.5465327E-1,9.2358834E-1,-7.3872656E-1,1.6158658E-1,5.805613E-1,-1.8986398E-1,1.6796763E-1,-1.02044E0,9.538065E-1,-2.727326E-1,-5.548155E-1,3.6327642E-1,-2.9710189E-1,-1.0036938E0,-3.8470995E-1,6.0121703E-1,3.5646757E-1,-1.1657767E0,-3.720531E-1,5.999983E-1,9.235896E-1,-2.2910763E-1,6.034771E-1,-1.1151054E0,-5.4798037E-1,7.266904E-1,-9.102509E-1,7.3990756E-1,7.8019613E-1,-6.2363786E-3,-8.900175E-1,7.762674E-1,-1.22791395E-1,2.2392291E-1,9.5336184E-2,-1.0743719E0,-5.556631E-1,3.112127E-1,9.4737756E-1,-2.4649061E-1,5.89486E-2,-6.9581467E-1,1.048731E-2,2.8595424E-1,-5.9520423E-1,2.4992715E-1,-2.792337E-1,9.8032814E-1,-7.8589916E-1,2.9741108E-4,-1.2190373E-1,2.8806183E-1,-1.0414999E0,7.0861146E-2,9.740568E-1,-1.8858586E-3,1.6644251E-1,-6.990013E-1,-3.5910346E-2,4.2932746E-1,1.2320448E0,-8.1546414E-1,-1.0149142E0,6.2043495E-2,1.6290712E-1,-5.0267214E-1],"categories":[],"categories_nodes":[],"categories_segments":[],"categories_sizes":[],"default_left":[1,1,1,1,1,1,1,1,1,1,1,1,1,1,1,1,1,1,1,1,1,1,1,1,1,1,1,1,1,1,1,1,1,1,1,1,1,1,1,0,0,1,1,1,1,1,1,1,1,1,0,0,0,1,1,1,0,1,1,1,1,1,0,0,0,0,0,0,0,0,0,0,0,0,0,0,0,0,0,0,0,0,0,0,0,0,0,0,0,1,1,0,0,0,0,0,0,0,0,0,0,0,0,0,0,0,0,0,0,0,0,0,0],"id":12,"left_children":[1,3,5,7,9,11,13,15,17,19,21,23,25,27,29,31,33,35,37,39,41,43,45,47,49,51,53,55,57,59,61,63,65,67,69,71,73,75,77,-1,-1,79,81,83,85,87,-1,91,93,95,-1,-1,-1,97,99,101,-1,103,105,107,109,111,-1,-1,-1,-1,-1,-1,-1,-1,-1,-1,-1,-1,-1,-1,-1,-1,-1,-1,-1,-1,-1,-1,-1,-1,-1,-1,-1,-1,-1,-1,-1,-1,-1,-1,-1,-1,-1,-1,-1,-1,-1,-1,-1,-1,-1,-1,-1,-1,-1,-1,-1],"loss_changes":[1.8247246E3,3.9842847E2,2.2604138E2,2.7665594E2,2.0006477E2,1.4550671E2,1.24177734E2,1.13487305E2,2.0846396E2,9.281952E0,3.2729633E1,4.0527786E1,2.9828613E1,3.382675E1,2.137439E1,3.6116966E1,6.9703735E1,1.8032323E2,1.8329448E2,1.8696729E0,6.214264E0,1.8336117E1,5.4429083E0,2.1512413E1,3.2553444E0,3.5385714E0,8.451088E0,1.0037403E1,6.7685795E0,2.0995361E1,9.209302E0,1.7803436E1,7.0561323E0,6.0124878E1,1.4512057E2,6.816208E1,6.55863E1,6.41853E1,9.956885E1,0E0,0E0,6.3073146E-1,3.8501587E0,5.3353763E0,1.2027275E1,1.4656982E0,1.5234768E-2,4.299794E0,1.2638924E1,8.152628E-1,0E0,0E0,0E0,8.243401E-1,3.0991135E0,9.6909714E-1,0E0,5.1413097E0,4.9145162E-1,6.052343E1,2.0154907E1,2.223847E0,0E0,0E0,0E0,0E0,0E0,0E0,0E0,0E0,0E0,0E0,0E0,0E0,0E0,0E0,0E0,0E0,0E0,0E0,0E0,0E0,0E0,0E0,0E0,0E0,0E0,0E0,0E0,0E0,0E0,0E0,0E0,0E0,0E0,0E0,0E0,0E0,0E0,0E0,0E0,0E0,0E0,0E0,0E0,0E0,0E0,0E0,0E0,0E0,0E0,0E0,0E0],"parents":[2147483647,0,0,1,1,2,2,3,3,4,4,5,5,6,6,7,7,8,8,9,9,10,10,11,11,12,12,13,13,14,14,15,15,16,16,17,17,18,18,19,19,20,20,21,21,22,22,23,23,24,24,25,25,26,26,27,27,28,28,29,29,30,30,31,31,32,32,33,33,34,34,35,35,36,36,37,37,38,38,41,41,42,42,43,43,44,44,45,45,46,46,47,47,48,48,49,49,53,53,54,54,55,55,57,57,58,58,59,59,60,60,61,61],"right_children":[2,4,6,8,10,12,14,16,18,20,22,24,26,28,30,32,34,36,38,40,42,44,46,48,50,52,54,56,58,60,62,64,66,68,70,72,74,76,78,-1,-1,80,82,84,86,88,-1,92,94,96,-1,-1,-1,98,100,102,-1,104,106,108,110,112,-1,-1,-1,-1,-1,-1,-1,-1,-1,-1,-1,-1,-1,-1,-1,-1,-1,-1,-1,-1,-1,-1,-1,-1,-1,-1,-1,-1,-1,-1,-1,-1,-1,-1,-1,-1,-1,-1,-1,-1,-1,-1,-1,-1,-1,-1,-1,-1,-1,-1,-1],"split_conditions":[4.188875E-2,1.0244203E0,-1.630808E0,5.2358937E0,8.505502E-1,1.0873868E0,-3.7601286E-1,-1.2146248E1,5.744602E0,-2.9114194E0,3.2511875E-2,1.225E2,-4.3784675E-1,-2.3962803E0,2.5281332E0,-1.0370056E-1,1.965E2,-7.289849E-1,4.15E1,-5.3852806E0,-2.448512E0,-1.3864462E0,7.5172544E-1,-1.5266241E0,1.9143407E0,2.9498644E0,-1.5351472E0,3.27E2,1.4645085E0,-2.2661905E0,2.8319892E-2,4.5310724E-1,-6.257256E-1,-4.4910155E-2,1.3441896E-1,-3.0767636E0,1.9271327E0,-5.768988E-1,4.4573363E-2,-4.059335E-2,7.303607E-2,-8.49622E0,-1.9064319E0,1.0211607E1,3.800889E0,2.461163E-1,5.4384675E-2,9.284991E0,-1.8935869E0,1.6788157E-2,3.2317318E-2,1.16112255E-1,-3.7972797E-2,-4.4505754E0,-2.764861E0,1.9956524E0,-5.4546516E-2,-1.9559468E0,-2.3023539E0,-1.4529445E0,1.1785417E0,-5.3930366E-1,1.2024341E-1,7.129352E-2,-2.3315535E-1,-7.441062E-2,1.1999966E-1,1.8471792E-1,-4.582153E-2,1.2069543E-1,-2.2302108E-1,-1.0959607E-1,1.4533809E-1,-1.8205018E-1,1.4798151E-1,1.5603922E-1,-1.2472757E-3,-1.780035E-1,1.5525348E-1,-2.455828E-2,4.4784583E-2,1.9067237E-2,-2.1487439E-1,-1.1113262E-1,6.2242538E-2,1.8947552E-1,-4.9298123E-2,1.178972E-2,-1.3916294E-1,2.097462E-3,5.7190847E-2,-1.1904085E-1,4.998543E-2,-5.584674E-2,1.9606563E-1,-1.5717983E-1,5.9482216E-5,-2.4380747E-2,5.7612367E-2,-2.0829998E-1,1.4172229E-2,1.9481136E-1,-3.7717173E-4,3.3288505E-2,-1.3980027E-1,-7.182069E-3,8.586549E-2,2.4640897E-1,-1.6309284E-1,-2.0298283E-1,1.2408699E-2,3.2581426E-2,-1.0053443E-1],"split_indices":[228,420,802,765,423,93,454,144,878,654,438,850,593,318,526,230,831,249,843,765,456,231,456,663,250,764,781,831,773,22,799,147,389,438,302,594,733,731,789,0,0,6,524,869,243,576,19,282,712,377,0,0,0,570,92,838,0,634,418,23,522,800,0,0,0,0,0,0,0,0,0,0,0,0,0,0,0,0,0,0,0,0,0,0,0,0,0,0,0,2147483647,2147483647,0,0,0,0,0,0,0,0,0,0,0,0,0,0,0,0,0,0,0,0,0,0],"split_type":[0,0,0,0,0,0,0,0,0,0,0,0,0,0,0,0,0,0,0,0,0,0,0,0,0,0,0,0,0,0,0,0,0,0,0,0,0,0,0,0,0,0,0,0,0,0,0,0,0,0,0,0,0,0,0,0,0,0,0,0,0,0,0,0,0,0,0,0,0,0,0,0,0,0,0,0,0,0,0,0,0,0,0,0,0,0,0,0,0,0,0,0,0,0,0,0,0,0,0,0,0,0,0,0,0,0,0,0,0,0,0,0,0],"sum_hessian":[6.3576406E3,4.320778E3,2.0368629E3,3.9179863E3,4.027916E2,2.6824893E2,1.768614E3,2.0724724E3,1.845514E3,2.8250082E2,1.2029078E2,1.5882689E2,1.0942203E2,7.346966E1,1.6951444E3,6.612624E1,2.0063461E3,9.574457E2,8.880683E2,4.5345044E0,2.779663E2,9.8993355E1,2.129742E1,1.4441878E2,1.4408118E1,1.3095809E1,9.632622E1,4.2427258E1,3.1042402E1,1.676516E3,1.862835E1,4.4044205E1,2.2082043E1,1.3227228E3,6.836232E2,8.310972E2,1.2634843E2,5.3252124E2,3.5554703E2,2.2805004E0,2.254004E0,2.9505146E0,2.750158E2,1.1926767E1,8.706659E1,1.896879E1,2.3286316E0,9.336943E0,1.3508183E2,1.3318562E1,1.0895567E0,1.0221615E1,2.874194E0,3.5925455E0,9.273367E1,3.912569E1,3.3015692E0,2.8250568E1,2.7918327E0,5.36806E1,1.6228354E3,1.1749217E1,6.8791327E0,4.38533E0,3.9658875E1,2.542472E0,1.9539572E1,1.27952E3,4.3202858E1,6.395732E2,4.405007E1,3.7254475E1,7.938428E2,1.0389999E2,2.2448444E1,1.2972575E2,4.027955E2,3.2305777E2,3.2489277E1,1.0360854E0,1.9144293E0,1.2655284E0,2.7375027E2,8.423348E0,3.5034199E0,8.17736E1,5.292993E0,1.208493E0,1.7760296E1,1.0086681E0,1.3199635E0,6.7902994E0,2.5466435E0,4.3186235E0,1.3076321E2,1.1923205E1,1.3953557E0,1.0082523E0,2.5842934E0,9.142569E1,1.3079834E0,3.8125683E1,1.0000073E0,4.449469E0,2.38011E1,1.0442195E0,1.7476132E0,1.0104558E1,4.3576042E1,1.6063998E3,1.643566E1,1.4070648E0,1.0342153E1],"tree_param":{"num_deleted":"2","num_feature":"893","num_nodes":"113","size_leaf_vector":"0"}},{"base_weights":[-9.160755E-3,-9.1909206E-1,2.696589E-1,-9.439679E-1,3.1377494E-1,-3.3940575E-1,4.095703E-1,-9.606977E-1,2.690895E-1,-3.887468E-1,6.3921344E-1,6.8358296E-1,-6.0669994E-1,6.221265E-1,6.102457E-2,-3.1168315E-1,-9.805512E-1,5.950623E-1,-3.146857E-1,-4.583487E-1,5.9932284E-2,7.11396E-1,-1.05726875E-1,-5.834549E-1,8.751192E-1,-8.3431387E-1,7.997778E-2,8.651177E-1,3.3465812E-1,6.3428235E-1,-1.532323E-1,4.580946E-1,-5.8039856E-1,-9.854772E-1,2.092436E-1,8.048165E-1,-1.8261996E-1,4.083874E-2,-3.677758E-1,-6.527505E-1,1.1225495E-1,9.36221E-1,-3.7703237E-1,4.9585888E-1,-9.4283456E-1,6.5310925E-1,-7.7716184E-1,8.8711137E-1,-4.7558182E-1,5.497104E-1,-4.293846E-1,-2.5807762E-1,8.446674E-1,-6.363631E-1,1.4727585E-1,-1.1982626E-2,4.9082062E-1,-8.0631644E-1,3.5699973E-1,2.531406E-1,-9.887915E-1,4.2399326E-1,-1.7554618E-1,9.453973E-1,-6.9943585E-2,5.1670108E-2,-7.0197755E-1,-3.4556565E-1,9.846515E-1,1.2846908E-1,-5.2593774E-1,7.6226294E-1,-3.8274458E-1,1.7948057E-1,-1.0654538E0,9.917975E-1,-5.340704E-1,3.478002E-1,-9.080045E-1,-7.7483284E-1,9.0306693E-1,-1.4595898E0,5.480519E-1,-7.448685E-1,6.321369E-1,4.559529E-1,-1.270891E0,-9.519493E-1,2.982935E-1,-2.8914478E-2,9.682362E-1,-9.392575E-1,1.4393458E-1,-6.8444425E-1,3.7509096E-1],"categories":[],"categories_nodes":[],"categories_segments":[],"categories_sizes":[],"default_left":[1,1,1,1,1,1,1,1,1,1,1,1,1,1,1,1,1,1,1,0,0,0,0,1,1,1,1,1,1,1,1,1,1,1,1,1,0,0,0,1,0,1,1,1,1,1,1,1,1,1,1,1,1,1,1,0,0,0,0,0,0,0,0,0,0,0,0,0,0,0,0,0,0,0,0,0,0,0,0,0,0,0,0,0,0,0,0,0,0,0,0,0,0,0,0],"id":13,"left_children":[1,3,5,7,9,11,13,15,17,19,21,23,25,27,29,31,33,35,37,-1,-1,-1,-1,39,41,43,45,47,49,51,53,55,57,59,61,63,-1,-1,-1,65,-1,67,69,71,73,75,77,79,81,83,85,87,89,91,93,-1,-1,-1,-1,-1,-1,-1,-1,-1,-1,-1,-1,-1,-1,-1,-1,-1,-1,-1,-1,-1,-1,-1,-1,-1,-1,-1,-1,-1,-1,-1,-1,-1,-1,-1,-1,-1,-1,-1,-1],"loss_changes":[1.4329426E3,4.358911E1,3.698214E2,2.8988037E1,1.0190954E1,2.2648663E2,2.6043298E2,1.3507568E1,6.7271147E0,8.021245E-1,2.194109E0,4.712613E1,1.0225658E2,1.497832E2,1.6613292E2,1.3583868E1,9.345215E0,4.7042913E0,4.4618416E-1,0E0,0E0,0E0,0E0,2.1181545E0,1.534362E1,7.526825E1,8.904919E1,3.8960083E1,1.6955173E2,7.122893E1,1.4421996E2,3.5503292E-1,1.2103656E1,7.5906982E0,1.8493068E0,2.809147E0,0E0,0E0,0E0,1.3198376E0,0E0,1.2720322E1,1.7530568E0,1.30855875E1,6.461023E1,4.8671143E1,1.3912468E1,3.782788E1,3.37105E1,8.9907166E1,1.7648648E2,3.2885197E1,3.266034E1,9.124292E1,1.19393234E2,0E0,0E0,0E0,0E0,0E0,0E0,0E0,0E0,0E0,0E0,0E0,0E0,0E0,0E0,0E0,0E0,0E0,0E0,0E0,0E0,0E0,0E0,0E0,0E0,0E0,0E0,0E0,0E0,0E0,0E0,0E0,0E0,0E0,0E0,0E0,0E0,0E0,0E0,0E0,0E0],"parents":[2147483647,0,0,1,1,2,2,3,3,4,4,5,5,6,6,7,7,8,8,9,9,10,10,11,11,12,12,13,13,14,14,15,15,16,16,17,17,18,18,23,23,24,24,25,25,26,26,27,27,28,28,29,29,30,30,31,31,32,32,33,33,34,34,35,35,39,39,41,41,42,42,43,43,44,44,45,45,46,46,47,47,48,48,49,49,50,50,51,51,52,52,53,53,54,54],"right_children":[2,4,6,8,10,12,14,16,18,20,22,24,26,28,30,32,34,36,38,-1,-1,-1,-1,40,42,44,46,48,50,52,54,56,58,60,62,64,-1,-1,-1,66,-1,68,70,72,74,76,78,80,82,84,86,88,90,92,94,-1,-1,-1,-1,-1,-1,-1,-1,-1,-1,-1,-1,-1,-1,-1,-1,-1,-1,-1,-1,-1,-1,-1,-1,-1,-1,-1,-1,-1,-1,-1,-1,-1,-1,-1,-1,-1,-1,-1,-1],"split_conditions":[-1.491623E-1,2.8668213E0,7.752922E-1,1.1785417E0,7.12542E-1,-1.2985297E0,3.7673533E0,-2.951782E0,1.02E2,-1.0134125E0,5.5172825E-1,-1.1712128E1,9.6625805E-1,1.975E2,7.6108134E-1,9.3799496E-1,1.540237E0,3.5101762E0,-3.6166852E0,-9.166974E-2,1.1986457E-2,1.422792E-1,-2.1145375E-2,4.3697557E0,1.7020991E0,-4.9504507E-1,9.6290934E-1,7.4923673E0,3.7310145E0,-2.2277102E-1,1.127515E0,-4.5935252E-1,9.557224E0,-8.671271E-1,1.494778E-1,1.212748E1,-3.6523994E-2,8.167748E-3,-7.3555164E-2,-3.9386697E0,2.245099E-2,-5.640787E0,-8.281757E-1,5.588977E0,7.251227E-2,4.9423046E0,-1.3423715E0,-5.657898E0,8.4657836E-1,-5.7414503E0,-1.8930311E0,-2.368507E0,-2.3669267E0,4.842545E-2,-2.2817798E0,-2.3965253E-3,9.816413E-2,-1.6126329E-1,7.139995E-2,5.0628122E-2,-1.977583E-1,8.479866E-2,-3.5109237E-2,1.8907946E-1,-1.3988717E-2,1.0334021E-2,-1.403955E-1,-6.911313E-2,1.969303E-1,2.5693817E-2,-1.0518755E-1,1.5245259E-1,-7.654892E-2,3.5896115E-2,-2.1309076E-1,1.983595E-1,-1.0681408E-1,6.956004E-2,-1.8160091E-1,-1.5496658E-1,1.8061338E-1,-2.9191798E-1,1.0961038E-1,-1.489737E-1,1.2642738E-1,9.1190584E-2,-2.541782E-1,-1.9038986E-1,5.9658702E-2,-5.7828957E-3,1.9364725E-1,-1.878515E-1,2.8786916E-2,-1.3688885E-1,7.501819E-2],"split_indices":[711,526,457,522,22,525,351,802,850,216,528,558,436,831,626,764,455,574,349,0,0,0,0,781,317,435,388,695,492,505,422,787,282,118,509,562,0,0,0,637,0,644,504,575,838,144,593,368,561,299,112,557,767,146,767,0,0,0,0,0,0,0,0,0,0,0,0,0,0,0,0,0,0,0,0,0,0,0,0,0,0,0,0,0,0,0,0,0,0,0,0,0,0,0,0],"split_type":[0,0,0,0,0,0,0,0,0,0,0,0,0,0,0,0,0,0,0,0,0,0,0,0,0,0,0,0,0,0,0,0,0,0,0,0,0,0,0,0,0,0,0,0,0,0,0,0,0,0,0,0,0,0,0,0,0,0,0,0,0,0,0,0,0,0,0,0,0,0,0,0,0,0,0,0,0,0,0,0,0,0,0,0,0,0,0,0,0,0,0,0,0,0,0],"sum_hessian":[5.628259E3,1.3147131E3,4.313546E3,1.2910074E3,2.3705603E1,8.031223E2,3.5104236E3,1.2754968E3,1.5510618E1,6.8890142E0,1.6816587E1,1.6314801E2,6.3997437E2,2.1757317E3,1.3346919E3,4.2816216E1,1.2326807E3,9.828923E0,5.6816955E0,5.7772913E0,1.1117226E0,1.5741571E1,1.0750165E0,1.8737183E1,1.4441083E2,4.7903726E2,1.6093707E2,1.1681902E3,1.00754156E3,3.5779227E2,9.768996E2,9.255319E0,3.3560894E1,1.2293083E3,3.3723397E0,7.4662395E0,2.3626835E0,1.0380323E0,4.6436634E0,1.760149E1,1.1356914E0,1.4009752E2,4.3133016E0,3.344149E1,4.4559576E2,9.787365E1,6.306343E1,1.1526644E3,1.5525781E1,7.884303E2,2.191113E2,6.782822E1,2.8996405E2,3.703335E2,6.065661E2,1.0149566E0,8.240362E0,2.817011E1,5.3907843E0,1.2690606E0,1.2280393E3,1.5105046E0,1.8618352E0,5.7367873E0,1.7294518E0,1.1172857E0,1.6484205E1,2.8669345E0,1.3723059E2,1.2937475E0,3.0195541E0,2.6676868E1,6.7646227E0,4.3432022E1,4.0216376E2,7.742966E1,2.0443995E1,4.8429613E0,5.822047E1,6.4381833E0,1.1462262E3,5.744625E0,9.781155E0,4.2384087E1,7.460462E2,1.0900758E2,1.10103714E2,2.7020254E1,4.080796E1,3.6882156E1,2.5308191E2,2.6530914E2,1.0502435E2,1.26110596E2,4.8045547E2],"tree_param":{"num_deleted":"0","num_feature":"893","num_nodes":"95","size_leaf_vector":"0"}},{"base_weights":[-9.591407E-3,-8.9137423E-1,2.4045959E-1,6.76153E-2,-9.2808175E-1,-3.14559E-1,3.636659E-1,-4.7075137E-1,4.8591277E-1,-9.4344497E-1,2.980672E-1,6.340631E-1,-5.572331E-1,6.5890497E-1,1.24058254E-1,1.3975465E-1,-5.6519556E-1,6.677069E-1,-2.2026676E-1,-2.8264838E-1,-9.6441853E-1,5.0761193E-1,-2.4318925E-1,-4.4074407E-1,8.553659E-1,-7.690575E-1,6.814365E-2,-1.15425564E-1,7.2418135E-1,4.972724E-1,-1.658475E-1,2.3756823E-2,-6.009961E-1,-1.8407215E-1,8.067831E-1,-2.8450108E-1,5.573476E-2,4.70763E-1,-5.967991E-1,5.7588246E-2,-9.725034E-1,-6.916935E-1,3.4421325E-1,9.118628E-1,-3.7126318E-1,4.3166974E-1,-8.7483734E-1,5.637765E-1,-8.0652595E-1,4.2621624E-1,-1.0994922E0,8.0940586E-1,1.3850673E-1,-3.822176E-1,8.142269E-1,-1.0015346E0,9.398203E-2,8.983995E-1,-1.1786849E-1,-7.008584E-3,5.006345E-1,-7.234074E-1,1.6250786E-1,4.1506025E-1,-3.1293938E-1,-9.777099E-1,2.3159473E-1,8.724187E-2,-7.5982654E-1,9.6899605E-1,-7.331607E-2,6.8304044E-1,-3.6059058E-1,1.2956095E-1,-1.0081947E0,1.0459279E0,-6.7069995E-1,3.1403777E-1,-9.200066E-1,7.780302E-1,-9.0942246E-1,-1.3728932E0,2.892433E-1,8.454228E-1,-7.080904E-1,-5.7391137E-1,5.0630456E-1,-8.7595993E-1,3.3821073E-1,-4.7082266E-1,8.573562E-1,-1.3276494E0,5.820692E-1,-2.886094E-1,4.2939812E-1],"categories":[],"categories_nodes":[],"categories_segments":[],"categories_sizes":[],"default_left":[1,1,1,1,1,1,1,1,1,1,1,1,1,1,1,0,1,1,1,1,1,0,0,1,1,1,1,1,1,1,1,0,0,0,1,0,0,1,1,1,1,1,0,1,0,1,1,1,1,1,1,1,1,1,1,1,1,0,0,0,0,0,0,0,0,0,0,0,0,0,0,0,0,0,0,0,0,0,0,0,0,0,0,0,0,0,0,0,0,0,0,0,0,0,0],"id":14,"left_children":[1,3,5,7,9,11,13,15,17,19,21,23,25,27,29,-1,31,33,35,37,39,-1,-1,41,43,45,47,49,51,53,55,-1,-1,-1,57,-1,-1,59,61,63,65,67,-1,69,-1,71,73,75,77,79,81,83,85,87,89,91,93,-1,-1,-1,-1,-1,-1,-1,-1,-1,-1,-1,-1,-1,-1,-1,-1,-1,-1,-1,-1,-1,-1,-1,-1,-1,-1,-1,-1,-1,-1,-1,-1,-1,-1,-1,-1,-1,-1],"loss_changes":[1.1135444E3,3.9903137E1,2.7021698E2,1.3649358E1,2.3067505E1,1.693205E2,2.2730243E2,2.3547268E0,5.7474957E0,1.2025391E1,3.6054652E0,3.9776947E1,7.719624E1,7.373871E1,1.9475395E2,0E0,6.801481E-1,4.9173603E0,4.127909E-1,1.3907441E1,9.049744E0,0E0,0E0,8.772406E0,